{"conv1.weight":[[[[0.20305399596691132,0.03436499834060669,-0.022739000618457794,0.12846200168132782,-0.03451099991798401],[0.014077000319957733,-0.24570700526237488,0.03966100141406059,0.1347779929637909,0.04119399935007095],[-0.028454000130295753,0.1636659950017929,0.23780299723148346,0.3123140037059784,0.13361899554729462],[0.05112599954009056,0.23608100414276123,0.20899799466133118,0.06550200283527374,0.08631599694490433],[0.06617899984121323,0.0947050005197525,-0.07069599628448486,-0.09056500345468521,0.11057599633932114]]],[[[-0.3715119957923889,-0.059078000485897064,-0.06097099930047989,0.32515498995780945,0.06718000024557114],[-0.2312929928302765,-0.24470500648021698,0.05700499936938286,0.37185201048851013,0.05424100160598755],[-0.3261590003967285,-0.15453100204467773,0.06394600123167038,0.08289399743080139,0.175368994474411],[-0.3340429961681366,-0.13742700219154358,0.06385400146245956,0.2069070041179657,0.26401999592781067],[-0.04502800107002258,0.03199499845504761,0.17170900106430054,0.24538999795913696,0.13830000162124634]]],[[[-0.3430750072002411,-0.5310860276222229,-0.36130499839782715,-0.2873130142688751,-0.12415999919176102],[0.24287599325180054,-0.18497900664806366,-0.24570100009441376,-0.12858299911022186,0.04288500174880028],[0.35253700613975525,0.36818599700927734,0.017704999074339867,0.04032300040125847,0.13402800261974335],[0.007350999861955643,0.28325799107551575,0.2544650137424469,0.039386000484228134,-0.18169499933719635],[-0.0011899999808520079,-0.005338999908417463,0.2959420084953308,0.18780599534511566,0.18081499636173248]]],[[[-0.04418199881911278,0.16536900401115417,0.09596999734640121,0.4141089916229248,0.07233700156211853],[-0.004031999967992306,0.27894899249076843,0.100102998316288,0.5021939873695374,0.2924470007419586],[-0.3360239863395691,-0.24981799721717834,-0.11993999779224396,0.14731000363826752,0.3423759937286377],[-0.2026270031929016,-0.30347099900245667,-0.39234599471092224,-0.19969099760055542,0.2416130006313324],[-0.23119300603866577,-0.17190299928188324,-0.19759799540042877,-0.1616480052471161,0.2372709959745407]]],[[[0.22170500457286835,0.29199498891830444,0.190078005194664,0.053217001259326935,-0.26274698972702026],[-0.15683500468730927,0.051757000386714935,0.2287140041589737,-0.13170099258422852,0.1616930067539215],[-0.15405699610710144,0.05515199899673462,-0.12265899777412415,0.2258249968290329,-0.1042260006070137],[0.07932999730110168,0.16164499521255493,0.15673600137233734,0.18427999317646027,0.14055199921131134],[-0.031817998737096786,0.09457600116729736,-0.08174499869346619,0.12971100211143494,0.24541600048542023]]],[[[-0.3755910098552704,-0.3025529980659485,0.05511099845170975,0.040876999497413635,0.2998420000076294],[-0.21126499772071838,0.25001099705696106,0.08920399844646454,0.21014100313186646,0.11177600175142288],[0.25013598799705505,0.20694300532341003,0.26353201270103455,0.01447100006043911,0.10745599865913391],[0.13986699283123016,0.20200900733470917,-0.2531000077724457,-0.18279600143432617,0.028389999642968178],[-0.056501999497413635,-0.3318159878253937,-0.002612000098451972,-0.10874900221824646,0.09349499642848969]]],[[[-0.04256900027394295,0.07427900284528732,0.2960290014743805,-0.10294900089502335,-0.2962400019168854],[-0.13104400038719177,0.30438199639320374,0.25592899322509766,0.19335399568080902,0.32632800936698914],[0.09636499732732773,0.10595499724149704,-0.09590800106525421,0.14792600274085999,0.281497985124588],[0.10531900078058243,-0.16167299449443817,-0.03793099895119667,-0.3027240037918091,-0.0012369999894872308],[-0.0918470025062561,0.005861000157892704,-0.45384401082992554,-0.3680480122566223,-0.13598500192165375]]],[[[-0.10866100341081619,-0.29999199509620667,-0.2838119864463806,-0.23693500459194183,0.038120001554489136],[-0.2854140102863312,-0.3045470118522644,-0.09397199749946594,-0.16894200444221497,-0.06319800019264221],[-0.1499290019273758,-0.09700900316238403,-0.1569879949092865,0.16406600177288055,0.17939099669456482],[0.27231499552726746,0.053964000195264816,0.15088999271392822,0.3025889992713928,0.24408699572086334],[0.2666650116443634,0.07041899859905243,0.2976379990577698,-0.06058799847960472,0.27359798550605774]]]],"conv1.bias":[0.19465899467468262,0.06710900366306305,0.15414699912071228,0.04519300162792206,-0.025107000023126602,0.28655800223350525,0.030773000791668892,0.2084680050611496],"conv2.weight":[[[[-0.07846599817276001,0.07031700015068054,0.01947000063955784,-0.1246270015835762,-0.1652359962463379],[0.010916000232100487,-0.0762770026922226,-0.06169300153851509,-0.053902000188827515,-0.0307180006057024],[0.03821900114417076,-0.014058000408113003,-0.003696999978274107,-0.012922000139951706,0.040911998599767685],[0.003197999903932214,0.11400000005960464,0.04540000110864639,0.013776999898254871,0.018667999655008316],[0.16546200215816498,0.05595799908041954,0.09166199713945389,0.02696800045669079,0.07177399843931198]],[[-0.007519999984651804,-0.061925001442432404,-0.15699699521064758,-0.08091399818658829,-0.03639199957251549],[-0.05557499825954437,-0.05433100089430809,-0.10280100256204605,-0.0196090005338192,-0.03643399849534035],[-0.050223998725414276,0.0034129999112337828,0.08834200352430344,0.017006000503897667,0.009801999665796757],[-0.07912199944257736,0.06817500293254852,0.03653400018811226,0.08552099764347076,0.08839300274848938],[-0.05762400105595589,-0.1931450068950653,-0.007814999669790268,0.040488000959157944,0.06275299936532974]],[[0.12905800342559814,0.06856899708509445,-0.05086199939250946,-0.06698200106620789,-0.0797019973397255],[0.04199200123548508,-0.06110600009560585,0.12826399505138397,0.15130800008773804,0.05675100162625313],[0.008953999727964401,0.11836300045251846,0.03570599853992462,-0.03595700114965439,-0.022122999653220177],[0.24828900396823883,0.14422200620174408,-0.011614000424742699,-0.031971998512744904,-0.022989999502897263],[0.2186889946460724,0.039152998477220535,0.08184699714183807,-0.017167000100016594,-0.02084299921989441]],[[0.06090199947357178,-0.09330199658870697,-0.02492300048470497,0.041485998779535294,-0.07147999852895737],[-0.06780099868774414,0.08532200008630753,-0.03936700150370598,-0.05142499879002571,-0.01668900065124035],[-0.1118519976735115,0.028876999393105507,0.017983000725507736,0.028334999457001686,0.022637000307440758],[-0.11996400356292725,-0.11427599936723709,0.025591999292373657,-0.02736400067806244,-0.06720100343227386],[0.005634000059217215,-0.0013200000394135714,-0.0940610021352768,-0.03439600020647049,-0.014431999996304512]],[[-0.011043000034987926,-0.02592100016772747,-0.04500599950551987,-0.1325020045042038,-0.05311499908566475],[0.0037269999738782644,0.01497699972242117,-0.03991900011897087,-0.08759599924087524,0.022478999570012093],[-0.06377899646759033,0.04901200160384178,0.010869000107049942,0.04097599908709526,0.018021000549197197],[0.10891400277614594,0.06476300209760666,0.1020359992980957,0.03186799958348274,0.0650940015912056],[0.09713000059127808,0.01875700056552887,-0.03185399994254112,-0.005913000088185072,-0.07297799736261368]],[[-0.010839000344276428,0.00039500001003034413,0.04393300041556358,-0.09510599821805954,-0.1615470051765442],[-0.012675999663770199,0.010231999680399895,-0.01155299972742796,-0.03410600125789642,-0.02783600054681301],[0.0026000000070780516,-0.05642100051045418,0.07481099665164948,-0.08417899906635284,-0.05945799872279167],[0.017209000885486603,0.13587799668312073,0.04880300164222717,0.06351900100708008,-0.01168300025165081],[0.12501999735832214,0.19275100529193878,0.12187200039625168,0.11446399986743927,0.0374470017850399]],[[-0.0590829998254776,0.005898999981582165,-0.01078999973833561,-0.05826500058174133,-0.18093299865722656],[0.04215500131249428,0.003880999982357025,-0.07119599729776382,-0.1126210018992424,-0.17218700051307678],[-0.0029460000805556774,-0.004364999942481518,-0.04446300119161606,0.06773599982261658,-0.028168000280857086],[-0.006004999857395887,-0.03249699994921684,0.15658199787139893,0.062081001698970795,0.0645349994301796],[0.12020900100469589,0.20978200435638428,0.10843700170516968,0.07074499875307083,-0.044149000197649]],[[-0.0025760000571608543,0.04367600008845329,-0.02940100058913231,-0.07696200162172318,-0.028418000787496567],[-0.01769999973475933,-0.048507001250982285,-0.011899000033736229,0.023364000022411346,0.04566299915313721],[-0.038773998618125916,0.05372999981045723,0.0558909997344017,-0.09823700040578842,-0.027643999084830284],[0.08347199857234955,0.14219099283218384,-0.03665100038051605,-0.06698200106620789,-0.03295699879527092],[-0.008280999958515167,0.017513999715447426,0.037943001836538315,0.04747999832034111,0.02417300082743168]]],[[[0.04934899881482124,-0.04750800132751465,-0.06326500326395035,-0.038391999900341034,0.024922000244259834],[0.026861000806093216,0.008043999783694744,-0.09129499644041061,-0.12657299637794495,-0.10081999748945236],[-0.014658999629318714,0.08330100029706955,0.01567699946463108,0.044516999274492264,0.053366001695394516],[0.02983199991285801,0.06630399823188782,0.07072699815034866,0.07241299748420715,0.05028099939227104],[-0.07557599991559982,-0.05422100052237511,-0.022523999214172363,-0.05791899934411049,0.03494400158524513]],[[0.07648000121116638,0.0907829999923706,-0.046206001192331314,-0.047185998409986496,-0.07452099770307541],[0.04429600015282631,-0.02174999937415123,-0.04842500016093254,-0.05342099815607071,-0.06411799788475037],[0.0032500000670552254,-0.012648000381886959,-0.0019310000352561474,0.058823999017477036,0.006684000138193369],[-0.12475500255823135,0.026413999497890472,0.008426999673247337,-0.04752799868583679,-0.13745999336242676],[-0.04077399894595146,-0.07645899802446365,-0.023590000346302986,-0.060075998306274414,-0.017450999468564987]],[[-0.025112999603152275,-0.08823399990797043,0.02525700069963932,0.05566199868917465,-0.0435979999601841],[-0.019121000543236732,-0.11421900242567062,-0.06627199798822403,-0.060784999281167984,-0.04338899999856949],[-0.0980139970779419,-0.09775999933481216,0.08335600048303604,0.14590799808502197,0.1689790040254593],[0.07816199958324432,0.007962999865412712,-0.052326999604701996,0.11739499866962433,0.14867399632930756],[0.022794999182224274,-0.09929099678993225,-0.0381149984896183,-0.04290099814534187,-0.12495999783277512]],[[-0.09816800057888031,-0.1046919971704483,-0.006335999816656113,0.10075200349092484,0.09381499886512756],[-0.14999499917030334,-0.03504699841141701,-0.05389599874615669,0.06198199838399887,0.029750000685453415],[-0.0621040016412735,-0.12427899986505508,-0.17940600216388702,-0.17987799644470215,-0.13780200481414795],[0.03561500087380409,0.01954299956560135,-0.0066720000468194485,-0.0020860000513494015,-0.012430000118911266],[0.12016099691390991,0.1486629992723465,0.15738099813461304,0.09168899804353714,0.11128199845552444]],[[-0.06728699803352356,0.0257789995521307,0.026948999613523483,-0.09390900284051895,-0.06787700206041336],[-0.03463299944996834,-0.083747997879982,-0.005963999778032303,-0.039211999624967575,0.04605599865317345],[0.0871879979968071,0.03228599950671196,0.09369400143623352,-0.007546999957412481,0.038417998701334],[0.07159499824047089,0.03822200000286102,0.07656999677419662,0.11921299993991852,0.08965899795293808],[-0.07165099680423737,-0.05013199895620346,0.04777999967336655,-0.017017999663949013,0.004741000011563301]],[[-0.022686000913381577,0.0420599989593029,0.0633929967880249,0.06450700014829636,-0.02247600071132183],[0.0708639994263649,0.004069000016897917,-0.07349900156259537,-0.06870699673891068,-0.07383599877357483],[-0.014968999661505222,-0.026041999459266663,0.07915300130844116,-0.03430800139904022,-0.06723500043153763],[-0.08660399913787842,0.12099800258874893,0.16202400624752045,0.10719899833202362,0.12622599303722382],[-0.02697799913585186,0.05120699852705002,-0.004416000097990036,0.07369499653577805,0.13531999289989471]],[[-0.03014099970459938,0.07436200231313705,0.06556099653244019,0.1382250040769577,0.1484380066394806],[-0.08336800336837769,-0.027300000190734863,-0.021317999809980392,-0.013267000205814838,-0.05086600035429001],[-0.04609400033950806,-0.09272299706935883,-0.05829999968409538,-0.07007800042629242,-0.05230100080370903],[0.04682699963450432,0.028562000021338463,0.16764099895954132,0.05030300095677376,0.013869999907910824],[0.09720999747514725,0.1843080073595047,0.08754699677228928,-0.018224000930786133,0.04722199961543083]],[[0.01439599972218275,-0.04461300000548363,-0.001702000037766993,0.013861999846994877,-0.11977600306272507],[0.03195599839091301,0.05754999816417694,-0.13086900115013123,9.000000318337698e-06,-0.08354199677705765],[-0.0772479996085167,0.030525000765919685,-0.002747999969869852,0.13029900193214417,0.0815500020980835],[-0.058823999017477036,0.040667999535799026,0.01723399944603443,0.07311200350522995,-0.02027600072324276],[-0.13884900510311127,-0.09419900178909302,-0.11861500144004822,-0.10571499913930893,-0.1225150004029274]]],[[[-0.004110999871045351,0.034095000475645065,-0.0634860023856163,-0.012044999748468399,-0.036612000316381454],[-0.004840000066906214,-0.04047999903559685,-0.024973999708890915,-0.005524999927729368,-0.04788399860262871],[0.03467800095677376,0.08403400331735611,0.017542000859975815,-0.024808000773191452,0.04262499883770943],[-0.09640499949455261,0.05820100009441376,0.06527400016784668,0.0609779991209507,-0.0867059975862503],[-0.0683249980211258,0.06517600268125534,0.003019999945536256,0.02526799961924553,0.005894999951124191]],[[0.00013299999409355223,0.05170999839901924,0.0185759998857975,-0.05357100069522858,0.01142400037497282],[0.11345399916172028,0.12121400237083435,-0.19112800061702728,-0.06267300248146057,-0.011439000256359577],[0.12210500240325928,0.23738600313663483,-0.17417700588703156,-0.052762001752853394,-0.00938900001347065],[0.09952999651432037,0.23007699847221375,-0.02963699959218502,-0.13161200284957886,0.03096199966967106],[0.06617599725723267,0.16245099902153015,-0.028101999312639236,-0.04422000050544739,0.026619000360369682]],[[-0.029229000210762024,-0.05215099826455116,-0.03566800057888031,-0.10214900225400925,-0.034418001770973206],[-0.009699000045657158,-0.007089000195264816,-0.0394119992852211,-0.11074600368738174,-0.02943200059235096],[-0.10059499740600586,-0.1574620008468628,0.07791300117969513,0.10313799977302551,0.009584000334143639],[-0.12143799662590027,-0.23608499765396118,0.08919200301170349,0.11448299884796143,-0.01891699992120266],[-0.058754000812768936,-0.10916599631309509,-0.06515000015497208,-0.037321001291275024,-0.028206000104546547]],[[0.003914000000804663,-0.10877300053834915,-0.1784989982843399,-0.0024220000486820936,-0.0521249994635582],[0.1667809933423996,-0.11185300350189209,-0.24619600176811218,-0.060593001544475555,-0.11028800159692764],[0.16920700669288635,0.10247799754142761,0.02348499931395054,-0.014181000180542469,0.023308999836444855],[0.12014199793338776,0.14796100556850433,0.18812300264835358,0.03779499977827072,0.04672899842262268],[-0.016332000494003296,0.12829700112342834,0.03013700060546398,-0.059459999203681946,-0.007255000062286854]],[[-0.03789300099015236,-0.0110470000654459,-0.02885499969124794,0.030247999355196953,0.008181000128388405],[0.03516300022602081,0.0809670016169548,0.03859199956059456,-0.04427799955010414,-0.09304399788379669],[0.05757499858736992,0.0567610003054142,0.0838019996881485,-0.08161500096321106,-0.0036780000664293766],[0.04450500011444092,0.1731719970703125,0.17915600538253784,0.051190998405218124,0.02459000051021576],[-0.08077699691057205,-0.016208000481128693,0.0019330000504851341,-0.03342499956488609,-0.05368100106716156]],[[-0.06787099689245224,0.003269999986514449,0.11165600270032883,0.07675600051879883,0.014384999871253967],[0.00660800002515316,-0.0011780000058934093,-0.10701599717140198,-0.019739000126719475,0.09181199967861176],[-0.0373230017721653,0.011493000201880932,-0.1016480028629303,-0.02823599986732006,0.06504800170660019],[0.04207399860024452,-0.035843998193740845,-0.0379129983484745,-0.04240800067782402,0.04936999827623367],[-0.07113499939441681,0.023067999631166458,-0.013551999814808369,-0.04929700121283531,-0.09662199765443802]],[[-0.24324099719524384,-0.1943420022726059,0.11591699719429016,0.1052670031785965,0.041731998324394226],[-0.17078499495983124,-0.2239609956741333,-0.015761999413371086,-0.18591299653053284,-0.01949400082230568],[-0.07422199845314026,-0.039487000554800034,0.021787000820040703,0.02943599969148636,0.003237999975681305],[-0.15218499302864075,0.03609500080347061,0.09689799696207047,0.05477900058031082,-0.05918800085783005],[0.011880000121891499,-0.0028689999599009752,0.012663000263273716,0.006754999980330467,-0.1258769929409027]],[[0.03916100040078163,-0.06366799771785736,-0.022159000858664513,-0.022693999111652374,0.08700300008058548],[-0.024708999320864677,-0.1881449967622757,-0.11053299903869629,-0.05135200172662735,-0.007841000333428383],[0.047901999205350876,-0.17507700622081757,-0.09682299941778183,0.11617100238800049,0.05389599874615669],[-0.09288600087165833,-0.08611799776554108,-0.11432600021362305,0.01719599962234497,-0.028903000056743622],[-0.06732500344514847,-0.15050800144672394,-0.07536700367927551,-0.05297499895095825,-0.017889000475406647]]],[[[0.05299700051546097,0.06118600070476532,-0.011682000011205673,0.0734580010175705,0.009851000271737576],[0.0640299990773201,0.02275799959897995,0.041531000286340714,0.12419100105762482,0.06495500355958939],[-0.014941000379621983,0.1294340044260025,0.1257539987564087,0.012484000064432621,0.03568800166249275],[0.008744999766349792,-0.005026000086218119,-0.0446150004863739,-0.10753999650478363,-0.10195600241422653],[-0.12140700221061707,-0.13287700712680817,-0.0908999964594841,-0.08270800113677979,0.006905999965965748]],[[0.06630899757146835,0.00970499962568283,-0.03780699893832207,0.11743099987506866,0.15334700047969818],[0.07630600035190582,0.16711799800395966,0.10030999779701233,0.16581900417804718,0.007065000012516975],[0.017674999311566353,0.013953999616205692,0.0357620008289814,-0.10633300244808197,-0.16988100111484528],[-0.11843500286340714,-0.0999469980597496,-0.22205500304698944,-0.2706190049648285,-0.22648100554943085],[0.0129399998113513,-0.023770000785589218,-0.10570800304412842,-0.16490499675273895,-0.12655800580978394]],[[0.05156800150871277,-0.029332000762224197,-0.04397600144147873,-0.011222000233829021,0.010218000039458275],[0.03349100053310394,-0.031189000234007835,0.04785799980163574,0.0028019999153912067,-0.06989700347185135],[0.05159899964928627,0.006972000002861023,0.03441200032830238,0.03310700133442879,-0.07603099942207336],[-0.05861499905586243,0.051412999629974365,0.017525000497698784,-0.1354220062494278,-0.05753299966454506],[-0.016594000160694122,0.028541000559926033,0.09290699660778046,-0.005803999956697226,0.06383699923753738]],[[0.006060999818146229,-0.08720800280570984,-0.008922000415623188,-0.025810999795794487,-0.0921889990568161],[0.08160699903964996,-0.07498600333929062,-0.018386999145150185,-0.06495799869298935,-0.17026199400424957],[0.055580999702215195,0.02913600020110607,-0.0478070005774498,-0.06555499881505966,-0.10655099898576736],[0.16785100102424622,0.09949500113725662,0.1690319925546646,0.12173199653625488,-0.09368100017309189],[0.01806199923157692,-0.043428998440504074,-0.033319998532533646,-0.11707500368356705,-0.20101000368595123]],[[-0.001227000029757619,0.08100000023841858,0.0725720003247261,0.10327800363302231,0.012010999955236912],[-0.019610999152064323,0.0956450030207634,0.02400900050997734,0.08014699816703796,0.039319999516010284],[0.05840500071644783,0.0663129985332489,-0.007573999930173159,0.037831999361515045,0.009847999550402164],[-0.04340200126171112,-0.10189999639987946,-0.023104000836610794,-0.01460800040513277,-0.09272299706935883],[-0.07165999710559845,-0.0978429988026619,-0.08065900206565857,-0.09104699641466141,-0.1063390001654625]],[[-0.09910999983549118,0.05459799990057945,0.10186299681663513,0.13794100284576416,0.060763001441955566],[-0.025676000863313675,0.0714230015873909,-0.007224000059068203,0.05721199885010719,0.12850500643253326],[-0.01102800015360117,-0.018379999324679375,0.16167299449443817,0.08283399790525436,0.13681599497795105],[-0.015894999727606773,0.11413200199604034,0.03202600032091141,0.04540900141000748,-0.017455000430345535],[-0.19095000624656677,-0.2065429985523224,-0.22995099425315857,-0.1954289972782135,-0.08973599970340729]],[[-0.0889969989657402,0.008561999537050724,-0.020092999562621117,0.004569999873638153,-0.05305200070142746],[-0.10905899852514267,0.07098200172185898,0.07284600287675858,-0.021418999880552292,0.07926999777555466],[-0.02455100044608116,0.022972000762820244,0.04897800087928772,0.13620999455451965,0.0210960004478693],[0.11434700340032578,0.08962500095367432,-0.002939000027254224,-0.037994999438524246,-0.06798200309276581],[-0.09168300032615662,-0.13656100630760193,-0.13460400700569153,-0.22115199267864227,-0.25547999143600464]],[[0.07992299646139145,-0.00029399999766610563,0.06363999843597412,0.04790100082755089,0.05590499937534332],[0.08821900188922882,0.06329800188541412,0.10138300061225891,-0.024396000429987907,0.0019409999949857593],[0.00989800039678812,0.0662970021367073,0.12514600157737732,0.04005099833011627,-0.05265900120139122],[-0.16884399950504303,-0.0854400023818016,-0.13864800333976746,-0.22605900466442108,-0.05118300020694733],[0.022027000784873962,0.01731099933385849,-0.003000000026077032,0.008359000086784363,0.03136799857020378]]],[[[-0.04827599972486496,-0.01770400069653988,-0.11896000057458878,-0.035395000129938126,-0.006496000103652477],[0.05727300047874451,-0.04493499919772148,0.05958599969744682,0.06201599910855293,0.032058000564575195],[-0.021539999172091484,0.03897700086236,0.049286000430583954,-0.026965999975800514,0.013958999887108803],[-0.07144500315189362,0.07371500134468079,0.023708999156951904,-0.04553399980068207,-0.03459800034761429],[0.02182699926197529,-0.053697001188993454,-0.08712700009346008,0.017666000872850418,-0.045820001512765884]],[[0.0244159996509552,0.008264999836683273,0.04255799949169159,0.07242199778556824,0.04703700169920921],[-0.058747000992298126,-0.07816100120544434,-0.08545699715614319,0.03239699825644493,-0.0732709988951683],[-0.06353200227022171,-0.094541996717453,-0.18367399275302887,-0.07587800174951553,-0.1458349972963333],[-0.037911999970674515,0.13395799696445465,-0.14564800262451172,-0.08425100147724152,0.029980000108480453],[-0.036201998591423035,0.04347199946641922,-0.03039499931037426,-0.09311000257730484,-0.11591999977827072]],[[0.04593599960207939,-0.08664800226688385,-0.0328110009431839,0.07871700078248978,0.08813100308179855],[0.04596199840307236,0.11921799927949905,0.06663300096988678,0.1228569969534874,0.14664499461650848],[0.003215000033378601,-0.004472999833524227,0.0947360023856163,0.0015219999477267265,0.19074900448322296],[-0.0570640005171299,-0.04410700127482414,0.061896998435258865,0.10637599974870682,0.147025004029274],[-0.07555600255727768,-0.060784999281167984,-0.011801999993622303,0.09031400084495544,0.07727999985218048]],[[-0.07740099728107452,-0.17531399428844452,-0.24761700630187988,-0.18773899972438812,-0.17221300303936005],[-0.03959000110626221,-0.07794299721717834,-0.1422480046749115,0.026693999767303467,-0.0111480001360178],[0.08772800117731094,0.09989999979734421,0.009343000128865242,0.10446900129318237,0.08061400055885315],[0.045191001147031784,0.04618600010871887,-0.0022239999379962683,0.1046769991517067,0.14198100566864014],[0.1934109926223755,0.16031299531459808,0.022908000275492668,0.10811500251293182,-0.055743999779224396]],[[0.026861000806093216,-0.009783999994397163,-0.024946000427007675,0.037804000079631805,-0.06485500186681747],[-0.013292999938130379,0.021469999104738235,-0.01539199985563755,0.04851299896836281,-0.00725100003182888],[0.0951249971985817,0.011464999988675117,0.047832001000642776,-0.02528199926018715,0.10776100307703018],[-0.06673800200223923,-0.02558000013232231,0.009260999970138073,0.0244510006159544,0.06383900344371796],[-0.03651899844408035,0.011361000128090382,0.05622899904847145,-0.00774999987334013,-0.0001250000059371814]],[[0.015845999121665955,0.05717400088906288,-0.002056000055745244,-0.05895199999213219,0.031975001096725464],[0.026808999478816986,0.049389999359846115,0.116177998483181,0.13251399993896484,0.014518000185489655],[-0.03613999858498573,0.016442999243736267,0.041221000254154205,0.10735300183296204,0.10640700161457062],[-0.045246001332998276,-0.10733599960803986,-0.12002699822187424,-0.024474000558257103,-0.0117419995367527],[-0.04997599869966507,-0.11039599776268005,-0.07721500098705292,-0.05800300091505051,0.052636001259088516]],[[-0.1599230021238327,-0.005179999861866236,-0.06099700182676315,-0.0372299998998642,0.004991999827325344],[0.1329679936170578,0.10942400246858597,0.17597100138664246,0.14856700599193573,0.017323000356554985],[0.14522899687290192,-0.010319000110030174,0.03508799895644188,0.04364499822258949,0.06341099739074707],[-0.004267000127583742,0.03078100085258484,0.05518300086259842,-0.007902000099420547,0.021354999393224716],[-0.03905799984931946,-0.019610999152064323,0.03117999993264675,0.008643999695777893,-0.04076499864459038]],[[0.037606000900268555,0.025293000042438507,0.08468800038099289,0.0987439975142479,0.11032900214195251],[0.018657000735402107,0.008066999725997448,0.028342999517917633,0.10234399884939194,0.004372000228613615],[-0.017829999327659607,-0.06816499680280685,-0.09829699993133545,0.05275199934840202,0.03083599917590618],[-0.10904499888420105,-0.1445399969816208,-0.09555800259113312,-0.06837999820709229,-0.11304599791765213],[-0.09635099768638611,-0.143777996301651,-0.06429500132799149,0.05691700056195259,-0.0572660006582737]]],[[[-0.0722929984331131,0.014805000275373459,0.061914000660181046,0.027414999902248383,0.05200299993157387],[-0.13588599860668182,-0.09124299883842468,-0.08122500032186508,-0.0903870016336441,-0.06351300328969955],[-0.08575300127267838,-0.13182899355888367,-0.1518400013446808,-0.12487299740314484,0.05803399905562401],[-0.07253199815750122,-0.02534100040793419,-0.06712000072002411,0.060989998281002045,0.09741900116205215],[-0.016836000606417656,0.0009640000062063336,0.023429999127984047,-0.005394000094383955,-0.06032399833202362]],[[-0.21915699541568756,-0.14728699624538422,-0.07640500366687775,-0.10621900111436844,-0.13841800391674042],[-0.13763399422168732,-0.0921730026602745,-0.12804000079631805,-0.10797899961471558,0.023691000416874886],[-0.053102001547813416,-0.2480189949274063,-0.13642700016498566,0.027170000597834587,0.07764899730682373],[-0.0325700007379055,-0.12207899987697601,0.014414000324904919,0.09340599924325943,0.08299300074577332],[0.04843999817967415,0.06621699780225754,-0.00013899999612476677,0.034366000443696976,-0.01942499913275242]],[[-0.014674000442028046,0.13894300162792206,0.14893199503421783,0.058449000120162964,-0.028627999126911163],[-0.004929000046104193,-0.11290600150823593,-0.12289299815893173,-0.19880199432373047,-0.06587599962949753],[0.04576300084590912,0.12235800176858902,-0.02465900033712387,0.03343399986624718,0.07656499743461609],[-0.008716000244021416,0.03715699911117554,0.0463160015642643,0.10391999781131744,0.06068800017237663],[0.00811699964106083,-0.05299000069499016,0.09810300171375275,0.054705001413822174,-0.033500999212265015]],[[0.27176201343536377,0.08964899927377701,0.08395499736070633,0.07797600328922272,0.09865199774503708],[0.07579900324344635,0.12842999398708344,0.030581999570131302,-0.02367199957370758,0.1574539989233017],[-0.18867799639701843,-0.10111899673938751,-0.1329600065946579,-0.03389599919319153,0.013334999792277813],[0.013194999657571316,-0.10299299657344818,-0.014302000403404236,0.04341999813914299,-0.03704100102186203],[-0.12873299419879913,-0.011768000200390816,-0.03514299914240837,-0.007641000207513571,0.0059529999271035194]],[[-0.07588700205087662,0.006688000168651342,-0.008781000040471554,-0.04694800078868866,0.060903001576662064],[-0.044732000678777695,-0.004420999903231859,-0.008937000297009945,-0.016870999708771706,0.029918000102043152],[-0.11423999816179276,-0.18999899923801422,-0.0888030007481575,-0.04809900000691414,0.004720000084489584],[-0.0006849999772384763,-0.04002600163221359,-0.08487000316381454,-0.024424999952316284,-0.06558399647474289],[-0.02604600042104721,-0.02853900007903576,0.0012939999578520656,-0.028731999918818474,-0.038798000663518906]],[[-0.0035800000187009573,0.06800100207328796,0.0979510024189949,0.057930998504161835,0.16540400683879852],[-0.1987690031528473,-0.08242099732160568,-0.03470500186085701,-0.05619800090789795,0.010629000142216682],[-0.15353600680828094,-0.175027996301651,-0.10688800364732742,-0.11128900200128555,-0.0413069985806942],[-0.08896400034427643,-0.1554899960756302,-0.0655520036816597,-0.05369200184941292,0.1046459972858429],[0.0077240001410245895,-0.045315999537706375,0.055723000317811966,0.13471700251102448,0.11449000239372253]],[[0.1824990063905716,0.13406500220298767,0.1392190009355545,0.05368199944496155,0.04022099822759628],[0.002587999915704131,0.06719399988651276,0.03190600126981735,0.026924999430775642,-0.1306000053882599],[-0.10467799752950668,-0.08354300260543823,-0.08165799826383591,-0.13530400395393372,-0.15729300677776337],[0.0888260006904602,-0.022360999137163162,0.007505000103265047,-0.05368100106716156,0.08176399767398834],[0.034247998148202896,-0.002245000097900629,0.01687600091099739,0.0032389999832957983,0.11019700020551682]],[[-0.07589299976825714,0.007728000171482563,0.0630439966917038,0.0038300000596791506,-0.052062999457120895],[-0.13765400648117065,-0.11720199882984161,-0.058309998363256454,-0.06467299908399582,-0.03497299924492836],[0.0788009986281395,-0.037696000188589096,-0.07049600034952164,0.011909999884665012,0.26095300912857056],[-0.07694800198078156,-0.03819400072097778,0.13148699700832367,0.20066900551319122,0.22929899394512177],[0.07489600032567978,0.005752000026404858,0.019883999601006508,0.11876799911260605,-0.0931209996342659]]],[[[0.12341400235891342,0.0402970016002655,0.01586199924349785,-0.020038999617099762,-0.05944399908185005],[0.032304998487234116,0.0467739999294281,-0.05687300115823746,-0.11229699850082397,-0.10622300207614899],[0.0016110000433400273,-0.0017750000115484,-0.10161600261926651,-0.1841440051794052,-0.06307899951934814],[0.05313500016927719,-0.011184999719262123,-0.006574000231921673,-0.09265600144863129,0.022019999101758003],[-0.06190799921751022,-0.06010400131344795,0.050018999725580215,-0.03158000111579895,0.00811699964106083]],[[0.0530799999833107,-0.022453999146819115,-0.1036750003695488,-0.1305290013551712,-0.07706200331449509],[0.1656550019979477,0.09257899969816208,-0.10944700241088867,-0.02805499918758869,0.1521729975938797],[0.136136993765831,0.10680899769067764,-0.08217000216245651,0.037101998925209045,0.2019129991531372],[0.10864699631929398,0.09605900198221207,-0.07228299975395203,0.0018029999919235706,0.09042800217866898],[0.12580199539661407,0.11664500087499619,-0.0802450031042099,0.014848999679088593,0.17073899507522583]],[[-0.0032250001095235348,0.0443510003387928,-9.000000318337698e-06,-0.03602200001478195,-0.15542399883270264],[-0.03238900005817413,-0.07771199941635132,-0.053341999650001526,-0.10658399760723114,-0.09119299799203873],[-0.0337040014564991,-0.13695000112056732,-0.19279199838638306,-0.1321289986371994,-0.07895399630069733],[-0.07044000178575516,-0.25801700353622437,-0.21110700070858002,-0.09057199954986572,-0.07107499986886978],[-0.05106399953365326,-0.14824700355529785,-0.05760600045323372,0.05360500141978264,0.11277399957180023]],[[-0.03617199882864952,-0.12806500494480133,-0.09882599860429764,0.03467699885368347,0.0934159979224205],[0.1963070034980774,-0.008376000449061394,-0.1965080052614212,-0.08505500108003616,-0.030799999833106995],[0.07794699817895889,-0.03546600043773651,-0.25509899854660034,-0.10417100042104721,0.1272439956665039],[0.014570999890565872,-0.06423600018024445,-0.275501012802124,-0.07368399947881699,0.1972389966249466],[0.032315000891685486,-0.040564000606536865,-0.11360599845647812,-0.03235600143671036,0.1609479933977127]],[[0.1025179997086525,0.03278899937868118,-0.0263069998472929,0.03291400149464607,0.029378000646829605],[0.04571500048041344,0.1315619945526123,0.016445999965071678,-0.03326600044965744,0.0016570000443607569],[0.005177000071853399,0.07112900167703629,-0.03456899896264076,-0.20763500034809113,-0.009197999723255634],[-0.03294000029563904,0.08348699659109116,-0.03959200158715248,-0.033615998923778534,-0.03096500039100647],[-0.08631099760532379,-0.006742999888956547,-0.05150499939918518,0.02860400080680847,0.042458001524209976]],[[0.139164000749588,0.006287999916821718,-0.051405999809503555,0.005942000076174736,-0.0731159970164299],[0.11403000354766846,-0.030875999480485916,-0.08151599764823914,-0.1057170033454895,-0.032515998929739],[-0.013953999616205692,-0.014646999537944794,-0.03593600168824196,-0.11296200007200241,0.013670999556779861],[0.13461999595165253,-0.0011810000287368894,-0.05925099924206734,-0.0507970005273819,0.11150900274515152],[-0.021803999319672585,-0.030500000342726707,-0.0034119999036192894,-0.035475000739097595,0.09814400225877762]],[[-0.06601300090551376,-0.02659899927675724,-0.04632300138473511,0.04495900124311447,-0.043241001665592194],[-0.032297998666763306,-0.03531600162386894,-0.04427099972963333,-0.017663000151515007,-0.1385750025510788],[0.04262499883770943,0.09242100268602371,0.08422499895095825,-0.043852001428604126,-0.15348899364471436],[0.04593199864029884,0.00024500000290572643,-0.13709400594234467,-0.04358400031924248,-0.1310659945011139],[0.02075899951159954,-0.01335499994456768,-0.12581300735473633,-0.10639899969100952,0.023440999910235405]],[[0.0689850002527237,0.05552700161933899,-0.06989599764347076,-0.21382099390029907,-0.16686299443244934],[0.0009720000089146197,-0.04346900060772896,-0.06777200102806091,-0.04853200167417526,0.1021450012922287],[0.06677599996328354,-0.06561200320720673,-0.1937589943408966,-0.030131999403238297,0.1434510052204132],[0.08900099992752075,-0.08394400030374527,-0.11554499715566635,0.010027999989688396,0.14995400607585907],[0.11525899916887283,-0.022345999255776405,0.02238599956035614,0.08135899901390076,0.03170299902558327]]],[[[0.07313600182533264,-0.057447999715805054,0.06084299832582474,-0.025947999209165573,0.07350599765777588],[0.0331370010972023,0.014872999861836433,0.01551899965852499,0.09034799784421921,-0.04114999994635582],[-0.08705800026655197,-0.045354001224040985,0.0989139974117279,0.06738000363111496,-0.016346000134944916],[-0.11000099778175354,-0.12369900196790695,-0.11375600099563599,-0.08393099904060364,0.02533400058746338],[-0.12270200252532959,-0.031638000160455704,-0.0922200009226799,-0.0005029999883845448,0.05358000099658966]],[[-0.03005800023674965,0.05432400107383728,-0.01269300002604723,-0.004730000160634518,-0.06505099684000015],[0.023634999990463257,0.07685499638319016,0.04950999841094017,0.10316900163888931,-0.1047390028834343],[-0.009251000359654427,-0.04424000158905983,-0.0035349999088793993,-0.008814999833703041,-0.044828999787569046],[-0.13245299458503723,-0.11490499973297119,-0.12712499499320984,0.045795001089572906,-0.05134600028395653],[0.0006099999882280827,0.021763000637292862,-0.09446100145578384,-0.05676399916410446,-0.07628700137138367]],[[-0.025244999676942825,-0.13821899890899658,-0.09344399720430374,-0.08389999717473984,-0.04681599885225296],[-0.0902009978890419,-0.11038599908351898,0.014527999795973301,0.01590600050985813,0.030990000814199448],[-0.02716900035738945,-0.08975499868392944,-0.05159199982881546,0.06342999637126923,0.08971799910068512],[-0.07314900308847427,-0.030540000647306442,-0.07784800231456757,0.03391899913549423,0.01641000062227249],[0.07705400139093399,0.053247999399900436,0.1717730015516281,0.14431799948215485,0.11503399908542633]],[[-0.01067500002682209,-0.014725999906659126,-0.10569900274276733,-0.1458909958600998,-0.15454700589179993],[-0.04806499928236008,-0.0003549999964889139,0.028402000665664673,-0.019711999222636223,-0.028207000344991684],[0.014213000424206257,0.08345100283622742,0.08350300043821335,0.08993600308895111,0.02431200072169304],[-0.009828999638557434,0.08906199783086777,0.10228999704122543,0.22075200080871582,0.17694100737571716],[-0.044502999633550644,-0.13107599318027496,-0.05934099853038788,-0.06415499746799469,-0.010130000300705433]],[[0.06132299825549126,0.0876230001449585,-0.03363100066781044,-0.006225999910384417,0.06542199850082397],[-0.006837000139057636,0.05703800171613693,0.028650999069213867,0.09140899777412415,0.07743900269269943],[0.02282699942588806,-0.07346600294113159,0.04586799815297127,0.1229339987039566,0.0902940034866333],[-0.13159899413585663,-0.115167997777462,-0.04632800072431564,-0.04446300119161606,0.05553499981760979],[-0.12788499891757965,-0.07088100165128708,-0.05837799981236458,-0.03903200104832649,-0.049382999539375305]],[[0.0879800021648407,0.012643000110983849,0.01296599954366684,0.02989399991929531,0.043588001281023026],[0.05860700085759163,0.003481999970972538,-0.06341700255870819,0.02070000022649765,0.05320800095796585],[-0.010622000321745872,0.03741699829697609,0.028547000139951706,0.04405200108885765,0.07884299755096436],[-0.08256000280380249,-0.0549749992787838,0.015974000096321106,0.07114800065755844,-0.05553299933671951],[-0.10581400245428085,-0.054113999009132385,-0.12105800211429596,0.008561999537050724,0.0035089999437332153]],[[-0.055392999202013016,-0.09335599839687347,-0.02599800005555153,-0.07184100151062012,0.01889999955892563],[-0.060596998780965805,0.03319599851965904,0.04472900182008743,0.048222001641988754,0.03280000016093254],[0.03486600145697594,0.02722799964249134,0.015433999709784985,0.09852900356054306,-0.015905000269412994],[0.03935199975967407,-0.015513000078499317,0.040644001215696335,0.08571500331163406,-0.002824000082910061],[-0.021195000037550926,-0.17438499629497528,-0.06608200073242188,-0.016952000558376312,-0.0484669990837574]],[[-0.024108000099658966,-0.10473199933767319,-0.03660200163722038,-0.07049699872732162,0.0190420001745224],[-0.07367599755525589,-0.08351700007915497,0.08313500136137009,0.023883000016212463,0.0851759985089302],[-0.0253129992634058,-0.047221001237630844,0.09063799679279327,0.12806500494480133,0.025544999167323112],[-0.1299470067024231,-0.17789100110530853,-0.04078099876642227,-0.09268800169229507,-0.09454499930143356],[0.04491199925541878,0.13060399889945984,0.14004699885845184,0.03863399848341942,0.07003500312566757]]],[[[-0.052260998636484146,0.0610090009868145,0.06330300122499466,-0.049532998353242874,-0.04843899980187416],[0.014314999803900719,0.10675500333309174,-0.012064999900758266,-0.10051299631595612,0.01002500019967556],[0.07311899960041046,0.11512699723243713,-0.08094000071287155,-0.14899399876594543,-0.03511299937963486],[0.08019299805164337,0.05333099886775017,-0.0409960001707077,0.03043000027537346,0.05755800008773804],[0.05824200063943863,0.009236999787390232,0.04883100092411041,-0.04268399998545647,-0.07346999645233154]],[[0.09501799941062927,0.12932099401950836,0.11952999979257584,0.05132399871945381,0.036570001393556595],[-0.01676500029861927,0.1848589926958084,0.11349800229072571,-0.05780100077390671,0.15212400257587433],[-0.01142599992454052,0.186707004904747,0.18883399665355682,0.002351999981328845,0.13441599905490875],[0.03752800077199936,0.16264399886131287,-0.043556999415159225,-0.03491999953985214,0.07563299685716629],[0.0073379999957978725,0.16389800608158112,-0.026952000334858894,-0.0630199983716011,0.005477000027894974]],[[-0.09775999933481216,-0.029479999095201492,0.03968700021505356,-0.071834996342659,-0.08905000239610672],[-0.02910199947655201,-0.0366940014064312,-0.034926000982522964,-0.18269400298595428,0.00022699999681208283],[0.02887899987399578,-0.10649999976158142,-0.292618989944458,-0.19991199672222137,-0.010057000443339348],[-0.04088800027966499,-0.26003798842430115,-0.18256600201129913,-0.07091400027275085,-0.0005569999921135604],[-0.13595399260520935,-0.16058999300003052,-0.0581509992480278,0.11961399763822556,0.05058800056576729]],[[0.016005000099539757,0.07365000247955322,-0.021191999316215515,-0.14734899997711182,-0.03814300149679184],[0.06233900040388107,0.13370400667190552,-0.09056700021028519,-0.013043000362813473,-0.01191799994558096],[0.03157300129532814,0.016598999500274658,-0.24487599730491638,-0.07818099856376648,0.026902999728918076],[-0.013383000157773495,-0.08919800072908401,-0.2911570072174072,-0.11059600114822388,0.07277200371026993],[0.039723001420497894,0.03388800099492073,0.017409000545740128,-0.06182499974966049,0.05249100178480148]],[[0.023303000256419182,-0.03016499988734722,-0.05444499850273132,-0.043421998620033264,-0.11038099974393845],[-0.006593999918550253,-0.0034620000515133142,0.040144000202417374,-0.08556699752807617,-0.000981000019237399],[0.05042999982833862,-0.03443299978971481,-0.043024998158216476,-0.06848599761724472,-0.06273800134658813],[0.052223000675439835,0.0437610000371933,-0.017601000145077705,-0.0037849999498575926,-0.028257999569177628],[0.06821899861097336,-0.006380000151693821,0.1001729965209961,-0.08301600068807602,-0.0424249991774559]],[[0.052365001291036606,-0.058632999658584595,0.018319999799132347,-0.034779999405145645,-0.039500001817941666],[0.07241500169038773,0.06250599771738052,0.043372999876737595,-0.1062680035829544,-0.05621999874711037],[0.1172889992594719,0.05912899971008301,-0.02900099940598011,-0.14048700034618378,-0.031539998948574066],[0.10280100256204605,0.09735400229692459,-0.060621000826358795,-0.1395609974861145,0.05512300133705139],[0.04264000058174133,-0.01484300009906292,-0.04805900156497955,-0.015884000808000565,0.024274000898003578]],[[-0.15775200724601746,-0.09938099980354309,-0.00011800000356743112,0.0558600015938282,-0.016634000465273857],[-0.10280799865722656,-0.01809000037610531,-0.011203999631106853,0.10484399646520615,-0.10144100338220596],[-0.0993340015411377,0.03480200096964836,0.12538999319076538,-0.0030819999519735575,-0.09001000225543976],[-0.11958900094032288,-0.03742099925875664,0.04165700078010559,-0.1276320070028305,-0.048996999859809875],[0.03520600125193596,-0.02285899966955185,0.04044700041413307,-0.09614499658346176,-0.018332000821828842]],[[-0.0042119999416172504,0.10097400099039078,0.00839800015091896,-0.05188700184226036,0.09084899723529816],[0.0893229991197586,0.054363999515771866,-0.06252700090408325,-0.13146699965000153,0.09745799750089645],[0.12661699950695038,0.06946200132369995,-0.2291180044412613,-0.03504199907183647,0.010037999600172043],[0.045896999537944794,0.04094799980521202,-0.06151600182056427,0.04360499978065491,0.044821999967098236],[-0.0696759968996048,-0.03802400082349777,0.008677000179886818,0.08643399924039841,0.031366001814603806]]],[[[0.021779000759124756,-0.06293399631977081,-0.03006800077855587,-0.12710100412368774,-0.060162998735904694],[0.0460049994289875,0.03969400003552437,0.022348999977111816,-0.08306899666786194,-0.14295099675655365],[-0.04646800085902214,-0.007774000056087971,0.04243899881839752,0.1228799968957901,-0.05950799956917763],[0.0006639999919570982,-0.07512100040912628,0.04434800148010254,0.05477600172162056,0.07598999887704849],[-0.0235580001026392,0.0554409995675087,0.05056200176477432,0.06057099997997284,-0.0028180000372231007]],[[-0.00851800013333559,-0.09266000241041183,-0.042068000882864,-0.1198749989271164,-0.13692599534988403],[0.01159599982202053,0.0036140000447630882,-0.0563259981572628,-0.23686499893665314,-0.1492909938097],[0.02971000038087368,-0.0718730017542839,0.0935019999742508,0.023063000291585922,-0.10012699663639069],[0.005779999773949385,-0.038892000913619995,-0.005003000143915415,0.1653430014848709,0.0901539996266365],[-0.0070859999395906925,-0.018573999404907227,0.020851999521255493,0.05925000086426735,0.023756999522447586]],[[-0.011497999541461468,0.09182699769735336,0.13848599791526794,0.06288900226354599,-0.05039000138640404],[-0.0910860002040863,0.035117000341415405,0.13112199306488037,0.203234001994133,0.13609600067138672],[-0.09976000338792801,-0.055034998804330826,-0.11141800135374069,0.00020300000323913991,0.1249219998717308],[-0.03540299832820892,0.0017800000496208668,-0.014166999608278275,-0.09795200079679489,-0.009321999736130238],[0.03684600070118904,0.02691500075161457,-0.0529789999127388,-0.1069599986076355,-0.16004499793052673]],[[0.019732000306248665,0.021435000002384186,-0.08479800075292587,-0.15686899423599243,0.04755600169301033],[0.004976999945938587,0.12225499749183655,0.12321899831295013,0.014972999691963196,0.024212999269366264],[-0.015157000161707401,0.002616999903693795,0.1980849951505661,0.11121100187301636,0.01879500038921833],[-0.06237399950623512,-0.04326099902391434,0.1134290024638176,0.057422999292612076,-0.040383998304605484],[-0.03471200168132782,-0.07293900102376938,-0.04641399905085564,-0.10198500007390976,-0.0005510000046342611]],[[0.04976499825716019,0.08063600212335587,0.015350000001490116,-0.02860100008547306,-0.026962999254465103],[0.02578599937260151,0.12563900649547577,0.08926799893379211,-0.02304700016975403,-0.1056779995560646],[-0.0199350006878376,0.09923599660396576,0.15570899844169617,0.10847300291061401,0.007222999818623066],[-0.11437100172042847,0.03733000159263611,0.04573599994182587,0.08366099745035172,0.13870100677013397],[-0.10054600238800049,-0.0828389972448349,-0.004188000224530697,0.0658629983663559,0.0921740010380745]],[[-0.02622999995946884,-0.044109001755714417,-0.12312500178813934,-0.07670900225639343,0.0007379999733529985],[0.02038400061428547,0.08938299864530563,0.00164899998344481,-0.02178099937736988,-0.020914999768137932],[0.07367300242185593,0.03302700072526932,0.08186399936676025,-0.09649799764156342,-0.1324779987335205],[0.06738299876451492,-0.04055200144648552,0.12771999835968018,0.023997999727725983,-0.023236000910401344],[-0.0027759999502450228,0.09383600205183029,0.09528599679470062,0.057739999145269394,0.07768899947404861]],[[-0.0031799999997019768,-0.006058999802917242,-0.13947899639606476,0.004478999879211187,0.06584300100803375],[0.05870100110769272,0.08295200020074844,-0.010472999885678291,-0.14907099306583405,-0.020274000242352486],[-0.09533099830150604,0.083187997341156,0.09791299700737,-0.054037999361753464,-0.11217000335454941],[0.03720000013709068,-0.06018500030040741,-0.02942799963057041,0.12451700121164322,0.02216999977827072],[0.024230999872088432,-0.1138480007648468,0.0339060015976429,0.12075100094079971,-0.006798999849706888]],[[-0.04233499988913536,-0.031103000044822693,0.0566909983754158,0.0669109970331192,0.06622199714183807],[-0.04826299846172333,0.02068299986422062,0.08037800341844559,-0.026342999190092087,-0.026197999715805054],[0.03470800071954727,-0.0579960010945797,-0.1338919997215271,-0.21516500413417816,-0.05443799868226051],[-0.0059540001675486565,-0.1044899970293045,0.050331998616456985,-0.0680140033364296,-0.21134300529956818],[0.011764000169932842,0.05048700049519539,0.01298299990594387,-0.07601899653673172,-0.04745600000023842]]],[[[0.033181000500917435,0.12942199409008026,0.05747999995946884,0.045343998819589615,0.026213999837636948],[0.0261400006711483,0.0028810000512748957,-0.005621000193059444,0.05674799904227257,0.0715709999203682],[-0.13434399664402008,-0.02651599980890751,-0.004999000113457441,-0.02199600078165531,0.029551999643445015],[0.010641999542713165,0.023087000474333763,-0.09253799915313721,-0.05894500017166138,-0.04474499821662903],[-0.05018499866127968,-0.0015569999814033508,-0.004110999871045351,-0.050328001379966736,-0.08894799649715424]],[[-0.03161400184035301,-0.09724099934101105,-0.05398400127887726,-0.17093700170516968,-0.07114099711179733],[-0.07405000180006027,-0.17248399555683136,-0.20930300652980804,-0.1072240024805069,-0.08375699818134308],[-0.054186999797821045,-0.016836000606417656,0.016471000388264656,-0.006256999913603067,-0.03852400183677673],[-0.05640999972820282,-0.10075300186872482,-0.016661999747157097,-0.05538899824023247,0.04778699949383736],[0.07691200077533722,-0.0014519999967887998,0.028331000357866287,-0.010614000260829926,-0.07997100055217743]],[[0.08653999865055084,0.10532999783754349,0.16567499935626984,0.13545699417591095,0.21801599860191345],[-0.0900150015950203,0.05804000049829483,-0.01537800021469593,0.09149099886417389,0.05960699915885925],[0.03649599850177765,-0.016070999205112457,-0.044906001538038254,0.08506699651479721,-0.00979899987578392],[0.0987820029258728,0.148390993475914,0.0894249975681305,-1.2999999853491317e-05,0.0010939999483525753],[0.09519600123167038,0.06629999727010727,0.1585559993982315,0.06612999737262726,-0.002841999987140298]],[[-0.012663999572396278,-0.02422799915075302,-0.05315700173377991,-0.053872000426054,-0.020183000713586807],[0.14430400729179382,0.11697500199079514,0.1769160032272339,0.23123300075531006,0.22157199680805206],[-0.04947099834680557,-0.05125400051474571,0.029239999130368233,-0.0006859999848529696,-0.03783100098371506],[-0.05962400138378143,-0.014809999614953995,-0.019598999992012978,-0.1129940003156662,-0.12210000306367874],[-0.00444599986076355,-0.061834000051021576,-0.10188700258731842,-0.020562000572681427,-0.03846200183033943]],[[0.07553300261497498,0.04554099962115288,0.026155000552535057,0.04784899950027466,-0.06094500049948692],[0.03984199836850166,-0.049570001661777496,0.07539799809455872,0.0783739984035492,0.1264680027961731],[-0.12167800217866898,-0.0012839999981224537,0.08991000056266785,0.08037900179624557,-0.027036000043153763],[-0.011349000036716461,-0.09324999898672104,-0.03804900124669075,-0.058313000947237015,-0.09500200301408768],[-0.08414199948310852,-0.03514700010418892,-0.06601099669933319,-0.09166300296783447,-0.020011000335216522]],[[0.07038799673318863,0.015948999673128128,0.0680529996752739,0.029916999861598015,0.09966299682855606],[0.06161100044846535,0.03689099848270416,0.09928199648857117,0.06572499871253967,0.012335999868810177],[0.0016949999844655395,-0.038058001548051834,-0.043418001383543015,-0.0330360010266304,-0.05492600053548813],[-0.06128999963402748,-0.04069399833679199,0.09744500368833542,0.07536700367927551,-0.007613999769091606],[-0.05362100154161453,0.03131299838423729,-0.0015829999465495348,-0.060019999742507935,-0.07700300216674805]],[[0.0990149974822998,0.04862299934029579,0.07985600084066391,0.011165999807417393,-0.04043300077319145],[0.1166440024971962,0.12960100173950195,0.16314299404621124,0.03706499934196472,0.11548600345849991],[-0.05534600093960762,-0.015948999673128128,-0.04632300138473511,-0.10218100249767303,-0.021557999774813652],[-0.0983090028166771,-0.010878000408411026,-0.028358999639749527,0.029061999171972275,-0.064799003303051],[0.02505500055849552,0.011540000326931477,-0.039707001298666,-0.05961700156331062,-0.05173899978399277]],[[0.10343100130558014,0.1277569979429245,0.1499910056591034,0.08538399636745453,0.12112999707460403],[-0.0695900022983551,-0.08746899664402008,-0.1170630007982254,-0.22680999338626862,-0.12880800664424896],[-0.060867998749017715,-0.052925001829862595,-0.04636700078845024,0.021584000438451767,0.04335999861359596],[0.07841899991035461,0.023412000387907028,-0.007864000275731087,0.04255500063300133,0.07717400044202805],[-0.002466999925673008,0.006810999941080809,0.09080000221729279,-0.006713000126183033,-0.049201998859643936]]],[[[-0.01846799999475479,0.05765699967741966,0.09841399639844894,-0.0031500000040978193,0.007009999826550484],[0.023215999826788902,0.04562599956989288,-0.12624900043010712,-0.09077800065279007,-0.04455399885773659],[0.011899000033736229,-0.010342000052332878,-0.06287500262260437,-0.042507998645305634,-0.09458199888467789],[0.005109000019729137,0.04160099849104881,-0.03541800007224083,0.011455000378191471,-0.15752600133419037],[-0.04486199840903282,0.023347999900579453,-0.051906000822782516,-0.0990540012717247,-0.10353100299835205]],[[0.09821999818086624,0.09800799936056137,-0.08213499933481216,-0.18410399556159973,-0.1588120013475418],[0.09587399661540985,0.011762999929487705,-0.041475001722574234,-0.10213399678468704,-0.04599300026893616],[0.10287299752235413,0.04512999951839447,-0.0681769996881485,-0.04237699881196022,-0.025888999924063683],[0.06864199787378311,0.028356000781059265,-0.04289500042796135,-0.13068899512290955,-0.08615200221538544],[0.07754799723625183,-0.05641400068998337,-0.06872700154781342,-0.09221599996089935,-0.17202100157737732]],[[-0.05695899948477745,-0.04952799901366234,-0.01717500016093254,0.03302599862217903,0.13238699734210968],[-0.029147999361157417,-0.14120399951934814,-0.1665789932012558,-0.16736499965190887,0.1670130044221878],[-0.11240299791097641,-0.18229800462722778,-0.00011999999696854502,-0.058958999812603,-0.06451000273227692],[-0.05209499970078468,-0.04303500056266785,0.043508999049663544,0.102122001349926,2.499999936844688e-05],[-0.0822329968214035,0.08568000048398972,0.07144100219011307,0.04360000044107437,0.023677000775933266]],[[0.09555699676275253,-0.111176997423172,-0.02888599969446659,0.24539700150489807,0.12087900191545486],[0.12127300351858139,-0.15577100217342377,-0.0031870000530034304,0.18353499472141266,0.06929100304841995],[0.11065900325775146,-0.03339900076389313,-0.03544300049543381,0.17785699665546417,0.08451200276613235],[0.12015700340270996,0.1082570031285286,-0.0059460001066327095,-0.01267900038510561,-0.11896000057458878],[0.15030400454998016,0.05674400180578232,0.06835000216960907,-0.016847999766469002,-0.024646999314427376]],[[-0.0007459999760612845,-0.016832999885082245,-0.03519900143146515,0.020752999931573868,0.07901500165462494],[0.035027001053094864,-0.058754000812768936,0.012236000038683414,0.021174000576138496,0.02428700029850006],[0.023574000224471092,0.07441899925470352,-0.011761000379920006,-0.06480000168085098,-0.08409599959850311],[0.031355999410152435,0.08309199661016464,0.06460399925708771,-0.08992200344800949,-0.15167200565338135],[-0.012992000207304955,0.015661999583244324,-0.007732999976724386,-0.031390998512506485,-0.08934299647808075]],[[0.03240799903869629,-0.03669799864292145,0.1087229996919632,0.07851000130176544,-0.003794000018388033],[0.025218000635504723,0.07275400310754776,0.03221900016069412,-0.06923399865627289,-0.0035689999349415302],[-0.015185999684035778,-0.026108000427484512,-0.07594099640846252,-0.09591300040483475,-0.11928799748420715],[0.037473998963832855,-0.10796999931335449,0.011562000028789043,0.00442600017413497,-0.0972680002450943],[-0.0490030013024807,0.00737799983471632,0.01281300000846386,-0.002225999953225255,-0.1359889954328537]],[[-0.10549400001764297,0.04371599853038788,0.20568199455738068,0.17745299637317657,0.0936719998717308],[-0.028474999591708183,-0.08288300037384033,0.04884599894285202,-0.018360000103712082,0.13093799352645874],[0.018634000793099403,0.030174000188708305,-0.10596500337123871,0.020169999450445175,0.023283999413251877],[0.08102600276470184,0.0752749964594841,0.0038850000128149986,-0.013844000175595284,-0.008515999652445316],[0.033507999032735825,0.10935299843549728,0.06440000236034393,-0.050606999546289444,-0.055025000125169754]],[[-0.011022999882698059,0.049600999802351,-0.0438150018453598,-0.05753500014543533,-0.02578200027346611],[0.09010499715805054,-0.08877900242805481,-0.2791469991207123,-0.05611899867653847,-0.10992500185966492],[0.02483299933373928,-0.12711599469184875,-0.04979399964213371,0.017828000709414482,-0.026318000629544258],[-0.08917900174856186,-0.014360000379383564,0.026630999520421028,0.022119000554084778,-0.11914599686861038],[-0.04891499876976013,-0.11489100009202957,0.025042999535799026,-0.023037999868392944,-0.06938199698925018]]],[[[-0.03152799978852272,0.0010049999691545963,-0.04997999966144562,-0.07501599937677383,0.0032820000778883696],[0.015496999956667423,-0.05669400095939636,-0.07793000340461731,-0.07057899981737137,0.0002300000051036477],[0.00496299983933568,-0.0359559990465641,0.062146998941898346,-0.08174300193786621,-0.01796399988234043],[0.05910100042819977,0.043168000876903534,0.0645039975643158,0.036465998739004135,-0.11870600283145905],[0.019897999241948128,-0.03655099868774414,0.03824299946427345,0.0752519965171814,-0.03278600051999092]],[[-0.005520000122487545,-0.014078999869525433,-0.07110399752855301,0.0148930000141263,0.028922000899910927],[-0.08761399984359741,0.03657900169491768,-0.06506200134754181,-0.1993660032749176,-0.043453000485897064],[-0.05321300029754639,0.026681000366806984,0.061838001012802124,-0.28199899196624756,-0.06711400300264359],[-0.04901900142431259,0.007368999999016523,0.09164000302553177,0.02449600026011467,-0.05320100113749504],[0.09529999643564224,-0.05747300013899803,0.05544300004839897,0.09193400293588638,0.022332999855279922]],[[-0.012808999978005886,0.11017200350761414,0.04759800061583519,-0.06441199779510498,-0.04366900026798248],[0.08996099978685379,-0.034724000841379166,0.0542679987847805,0.11704599857330322,-0.059321001172065735],[0.07244700193405151,-0.008790000341832638,0.0031999999191612005,0.30637800693511963,0.09662099927663803],[-0.08393000066280365,0.10330799967050552,-0.0945810005068779,0.050383999943733215,0.19707299768924713],[-0.06016699969768524,0.06806299835443497,0.034991998225450516,-0.0728129968047142,0.02973799966275692]],[[-0.05873500183224678,0.022745000198483467,-0.06025300174951553,-0.035666000097990036,0.11663900315761566],[-0.04663499817252159,0.08382800221443176,-0.007430000230669975,-0.18300899863243103,0.18661800026893616],[0.011355999857187271,0.0976409986615181,0.15157300233840942,-0.021164000034332275,0.0374470017850399],[-0.04955799877643585,0.059498999267816544,0.19710199534893036,-0.018011000007390976,-0.030372999608516693],[-0.006541000213474035,-0.07802700251340866,-0.008844000287353992,-0.004143999889492989,0.0671280026435852]],[[0.00977499969303608,0.013950999826192856,-0.04565399885177612,-0.006281999871134758,0.07609900087118149],[0.023545999079942703,0.08137699961662292,0.08636900037527084,-0.08664300292730331,-0.01628500036895275],[0.07701200246810913,-0.041485000401735306,0.1266549974679947,0.04017199948430061,-0.08232899755239487],[0.08054699748754501,-0.05597899854183197,0.10603699833154678,0.029292000457644463,0.013787999749183655],[0.08829399943351746,0.047965001314878464,-0.019386999309062958,0.027255000546574593,-0.08650700002908707]],[[-0.0103150000795722,0.00774999987334013,-0.009975999593734741,0.010540000163018703,0.1237419992685318],[-0.01603800058364868,-0.05877099931240082,-0.055268000811338425,-0.06369300186634064,0.006541999988257885],[-0.003378999885171652,0.04145599901676178,-0.11659199744462967,-0.07370699942111969,-0.024581000208854675],[-0.03620800003409386,0.016025999560952187,-0.02695300057530403,-0.1149279996752739,-0.09423799812793732],[0.02070000022649765,-0.05335799977183342,-0.012048999778926373,0.07335600256919861,-0.08409400284290314]],[[0.07216800004243851,-0.10909099876880646,0.08892799913883209,0.13449199497699738,0.0544000007212162],[-0.010060999542474747,0.07267100363969803,-0.08290699869394302,0.009446999989449978,0.08564899861812592],[-0.052646998316049576,0.11651399731636047,0.05075199902057648,-0.11968299746513367,-0.014712000265717506],[-0.10594400018453598,-0.09757400304079056,0.02456199936568737,0.0027149999514222145,-0.013310999609529972],[0.06461899727582932,0.04936499893665314,0.01790899969637394,0.057530999183654785,-0.027083000168204308]],[[0.02453400008380413,-0.05433899909257889,-0.014915999956429005,-0.058931998908519745,-0.0014459999511018395],[0.009928000159561634,-0.06022600084543228,-0.08434099704027176,-0.04671100154519081,-0.006281999871134758],[-0.05559200048446655,0.024495000019669533,-0.12099999934434891,-0.021518999710679054,0.04596899822354317],[-0.07954700291156769,-0.02673500031232834,-0.0020230000372976065,-0.12080000340938568,0.03821700066328049],[-0.10848899930715561,0.0804319977760315,0.05069800093770027,-0.005555000156164169,-0.0010100000072270632]]],[[[-0.006273000035434961,0.019610000774264336,0.05488099902868271,0.06350400298833847,-0.006376999896019697],[-0.06114700064063072,-0.039496999233961105,0.0057379999198019505,0.10110700130462646,-0.010378999635577202],[0.09045600146055222,0.1029840037226677,0.07397899776697159,0.08034200221300125,0.03819100186228752],[-0.02047000080347061,0.07061199843883514,0.07149899750947952,0.0683860033750534,0.002535999985411763],[-0.026868000626564026,0.05917999893426895,-0.06199900060892105,-0.11270599812269211,-0.014779999852180481]],[[-0.022072000429034233,0.08951099961996078,-0.04682200029492378,0.09623099863529205,0.07466699928045273],[-0.028168000280857086,-0.004004999995231628,-0.012009999714791775,0.04808200150728226,-0.0014830000000074506],[-0.05601400136947632,0.08043699711561203,-0.016847999766469002,0.09401299804449081,0.04201599955558777],[0.08506999909877777,0.048615001142024994,0.04010400176048279,-0.004118000157177448,-0.0982460007071495],[0.07006199657917023,-0.06445900350809097,-0.08434300124645233,-0.032127998769283295,-0.06939099729061127]],[[-0.008551999926567078,0.07797899842262268,0.0647599995136261,0.07380100339651108,0.07159899920225143],[-0.06475000083446503,-0.05985800176858902,0.0012169999536126852,-0.13748699426651,-0.0674699991941452],[-0.05252400040626526,-0.028220999985933304,-0.12842799723148346,-0.07521600276231766,-0.11341600120067596],[0.043519001454114914,0.006767999846488237,-0.08239000290632248,-0.007794999983161688,0.04271500185132027],[-0.008864999748766422,-0.07620999962091446,0.03674500063061714,-0.006823999807238579,-0.02407499961555004]],[[0.09542100131511688,0.10702300071716309,0.025446999818086624,0.009185000322759151,-0.07274799793958664],[-0.04962199926376343,0.0826599970459938,-0.12323299795389175,-0.05733799934387207,-0.08568000048398972],[0.006093000061810017,-0.014709999784827232,-0.06078200042247772,-0.06713800132274628,0.01959500089287758],[-0.06775499880313873,0.03485000133514404,-0.06341899931430817,0.06172399967908859,-0.004747000057250261],[-0.05216800048947334,-0.12330400198698044,-0.09151399880647659,0.055629998445510864,0.10117699950933456]],[[-0.007110000122338533,0.03582099825143814,0.04804300144314766,0.03804599866271019,-0.00848700013011694],[0.00963400024920702,0.0861010029911995,0.03839699923992157,0.06182200089097023,0.0043739997781813145],[0.04140299931168556,0.08565700054168701,0.10238999873399734,0.08332400023937225,-0.022762000560760498],[0.04994500055909157,0.06545600295066833,0.06056499853730202,0.04649699851870537,-0.02943200059235096],[-0.018264999613165855,0.025644000619649887,-0.08867499977350235,-0.08662399649620056,0.04454300180077553]],[[0.04871699959039688,-0.06499899923801422,0.017799999564886093,-0.039354000240564346,-0.02727000042796135],[0.046539001166820526,0.05932899937033653,-0.0001289999927394092,-0.0025569999124854803,0.054361000657081604],[0.08789899945259094,0.05724899843335152,0.08743199706077576,0.03393600136041641,0.07022900134325027],[-0.0004659999976865947,-0.018871000036597252,0.032660000026226044,0.04267600178718567,0.04962199926376343],[-0.027806999161839485,0.08273199945688248,0.04533600062131882,-0.06424599885940552,0.060784999281167984]],[[-0.02064399980008602,-0.030639000236988068,-0.007973000407218933,-0.01664300076663494,0.1266539990901947],[-0.02880599908530712,-0.038346000015735626,-0.021067999303340912,0.05860299989581108,0.0930820032954216],[0.0030980000738054514,0.02151300013065338,0.00803299993276596,0.013334999792277813,0.012125000357627869],[-0.1148729994893074,0.0712520033121109,0.14332500100135803,0.13858699798583984,0.09002000093460083],[-0.08974599838256836,0.12295699864625931,0.14926700294017792,-0.0007999999797903001,0.001491999952122569]],[[-0.0039809998124837875,0.06421100348234177,-0.03288400173187256,0.02723499946296215,-0.0583840012550354],[0.017652999609708786,-0.05776600167155266,-0.0994189977645874,-0.12019400298595428,-0.062779001891613],[-0.03742299973964691,-0.0766730010509491,-0.05363300070166588,-0.043313998728990555,0.00367900007404387],[-0.008317000232636929,-0.049286000430583954,-0.14001700282096863,0.021432999521493912,-0.04844500124454498],[0.02433600090444088,-0.05285099893808365,-0.04693799838423729,-0.056053001433610916,-0.11035600304603577]]],[[[-0.0873740017414093,-0.12031099945306778,0.01558000035583973,0.037404000759124756,0.0633620023727417],[0.0021699999924749136,-0.0974389985203743,-0.050436001271009445,-0.11425899714231491,-0.08379200100898743],[-0.06106799840927124,-0.04634900018572807,0.03207699954509735,-0.07007600367069244,-0.058646999299526215],[0.009623999707400799,0.03648199886083603,-0.022307999432086945,0.05834899842739105,-0.0734419971704483],[0.03498300164937973,0.04161800071597099,0.07348500192165375,-0.026024000719189644,-0.044555000960826874]],[[-0.031185999512672424,0.030045999214053154,0.04521699994802475,0.13656799495220184,-0.047263000160455704],[0.038052998483181,0.09542600065469742,0.13688600063323975,-0.019780000671744347,-0.015030999667942524],[0.02469399943947792,0.11434300243854523,0.02915799990296364,-0.017659999430179596,-0.041648998856544495],[0.11276599764823914,0.09225700050592422,0.16029700636863708,-0.08014699816703796,-0.12384700030088425],[0.09115900099277496,0.09635499864816666,0.03761399909853935,-0.019724000245332718,-0.08587200194597244]],[[-0.06046300008893013,-0.012753999792039394,-0.08744599670171738,-0.06207599863409996,0.011897999793291092],[0.07851999998092651,-0.0648299977183342,-0.10595700144767761,-0.07840099930763245,-0.08471299707889557],[0.01829499937593937,0.005735999904572964,0.00031900001340545714,0.06773100048303604,-0.06170099973678589],[0.0839499980211258,0.01650400087237358,-0.08280099928379059,0.026621000841259956,0.057617999613285065],[0.04326700046658516,-0.05528600141406059,-0.025330999866127968,-0.0028019999153912067,0.0897969976067543]],[[-0.01593800075352192,-0.021159999072551727,0.030319999903440475,0.02692900039255619,0.06062300130724907],[0.050200000405311584,0.11908400058746338,-0.07605099678039551,0.04776500165462494,-0.01873599924147129],[0.047805000096559525,0.07250799983739853,0.07898099720478058,-0.09206599742174149,-0.11112599819898605],[-0.016323000192642212,0.027341000735759735,-0.004304000176489353,0.045864999294281006,-0.020880000665783882],[0.1350879967212677,-0.027403000742197037,-0.1299709975719452,0.08298599720001221,0.1231049969792366]],[[-0.13066299259662628,-0.0013520000502467155,-0.03214700147509575,-0.05045099928975105,0.03414599969983101],[-0.07947500050067902,-0.032079000025987625,-0.027224000543355942,-0.08533299714326859,-0.08548200130462646],[0.027675999328494072,0.06860200315713882,0.11653999984264374,0.06861899793148041,-0.13138499855995178],[0.1144310012459755,0.08887799829244614,0.1357170045375824,0.010824000462889671,-0.07773300260305405],[-0.022853000089526176,0.11271700263023376,-0.0010400000028312206,0.09322799742221832,-0.02573700062930584]],[[-0.1001409962773323,-0.08407899737358093,-0.08910799771547318,-0.005663999821990728,0.09917499870061874],[-0.07390200346708298,-0.1279660016298294,-0.07983200252056122,-0.03654500097036362,-0.0804549977183342],[-0.022061999887228012,-0.09563100337982178,-0.11467300355434418,-0.15115800499916077,-0.14022399485111237],[0.08177199959754944,0.021629000082612038,-0.09946800023317337,-0.09176000207662582,-0.07999099791049957],[-0.03334200009703636,0.07562100142240524,-0.014752999879419804,0.04810100048780441,0.010331000201404095]],[[-0.0757490023970604,-0.17901299893856049,-0.002715999959036708,0.13485699892044067,0.1286890059709549],[-0.06000199913978577,-0.1720779985189438,-0.07492899894714355,0.0018289999570697546,0.008516999892890453],[-0.04812999814748764,-0.2527500092983246,-0.06466899812221527,-0.09338399767875671,-0.0076790000312030315],[-0.12837600708007812,-0.19828900694847107,-0.0730770006775856,0.06455899775028229,-0.06578599661588669],[-0.0674080029129982,-0.05522000044584274,0.08660399913787842,0.20662499964237213,0.12431000173091888]],[[0.014655999839305878,-0.035371001809835434,-0.04278299957513809,-0.022478999570012093,-3.5000000934815034e-05],[-0.06856100261211395,0.052574001252651215,-0.038006000220775604,-0.04333199933171272,-0.03398500010371208],[0.06963600218296051,0.07220099866390228,-0.023560000583529472,-0.05611100047826767,0.009410999715328217],[-0.0031799999997019768,0.07524500042200089,-0.028896000236272812,0.0004299999854993075,0.09815800189971924],[0.0376100018620491,-0.010346000082790852,-0.06860499829053879,-0.033743999898433685,-0.06712699681520462]]],[[[0.15803000330924988,-0.09160199761390686,-0.0455470010638237,0.14914099872112274,0.13106900453567505],[-0.1345449984073639,-0.13653500378131866,0.02930700033903122,0.04399999976158142,0.10057400166988373],[-0.13579200208187103,-0.10475700348615646,-0.12458299845457077,-0.03487199917435646,-0.08509399741888046],[0.07166799902915955,0.014837999828159809,-0.01637599989771843,-0.11437000334262848,-0.05422599986195564],[0.13109900057315826,0.06356500089168549,0.048854000866413116,-0.06037500128149986,0.00343000004068017]],[[-0.02872299961745739,-0.1416739970445633,0.08275599777698517,0.07980500161647797,0.1761849969625473],[-0.058111000806093216,-0.04535999894142151,0.12052000313997269,0.07745900005102158,-0.028593000024557114],[-0.013152999803423882,-0.0032019999343901873,-0.05219300091266632,-0.03199499845504761,-0.04669300094246864],[0.040734000504016876,-0.04717399924993515,-0.05656899884343147,-0.07627400010824203,-0.00044100001105107367],[0.025807999074459076,-0.040598999708890915,-0.00849200040102005,-0.02788499929010868,-0.04606600105762482]],[[-0.006058999802917242,-0.20221899449825287,0.078234001994133,0.09061799943447113,-0.004846999887377024],[-0.2949109971523285,-0.19638000428676605,-0.053727999329566956,-0.07638099789619446,-0.11951900273561478],[-0.020176999270915985,-0.059071000665426254,-0.10981599986553192,-0.03825800120830536,-0.2356259971857071],[0.12694400548934937,0.15924599766731262,0.18345500528812408,0.06450600177049637,-0.02495500072836876],[0.16836699843406677,0.12143599987030029,0.14496299624443054,0.16479499638080597,0.08312200009822845]],[[-0.1049790009856224,-0.10676199942827225,0.050374001264572144,0.030936000868678093,-0.03439300134778023],[0.0067819999530911446,-0.021417999640107155,0.13502900302410126,0.12358400225639343,-0.005867000203579664],[-0.07415600121021271,-0.18344099819660187,0.03832999989390373,0.023459000512957573,-0.01018300000578165],[-0.1799429953098297,-0.21702900528907776,-0.15670999884605408,-0.026948999613523483,-0.10515300184488297],[-0.10075200349092484,-0.01487400010228157,-0.09291499853134155,0.01054999977350235,-0.12447000294923782]],[[0.11921799927949905,-0.04900500178337097,0.03739900141954422,0.04152499884366989,0.08925700187683105],[0.11317099630832672,-0.1414320021867752,-0.10074599832296371,0.03460000082850456,-0.010557999834418297],[-0.012423000298440456,0.00879599992185831,-0.030194999650120735,0.04005099833011627,-0.04861300066113472],[-0.02658499963581562,-0.049469999969005585,-0.03999599814414978,-0.06220800057053566,-0.07545600086450577],[0.03528900071978569,0.03398500010371208,-0.037758998572826385,-0.06631900370121002,-0.051920000463724136]],[[0.007486000191420317,-0.09450200200080872,-0.024757999926805496,0.17890000343322754,0.08606600016355515],[-0.07039400190114975,-0.14691400527954102,0.01972699910402298,0.14070500433444977,0.01534700021147728],[-0.19588400423526764,-0.08249100297689438,-0.10304100066423416,-0.07234100252389908,-0.05503400042653084],[0.02107200026512146,0.012616000138223171,-0.09209500253200531,-0.056108999997377396,-0.15759199857711792],[0.12391000241041183,-0.022433999925851822,0.007366000209003687,-0.07192099839448929,-0.10339400172233582]],[[0.14186500012874603,0.002529999939724803,-0.10987000167369843,-0.12446799874305725,0.02179200015962124],[0.12344600260257721,-0.04738499969244003,0.031383998692035675,0.14775000512599945,0.0029929999727755785],[-0.012928999960422516,-0.13363899290561676,-0.05814199894666672,0.023646000772714615,-0.05295500159263611],[-0.06178399920463562,-0.03361300006508827,-0.16606299579143524,-0.1450359970331192,-0.09842000156641006],[0.09814099967479706,0.06024400144815445,0.03317100182175636,-0.04834900051355362,-0.07384800165891647]],[[-0.13451999425888062,-0.17810100317001343,0.05423999950289726,0.12869000434875488,0.030511999502778053],[-0.3035610020160675,-0.0902160033583641,0.005652000196278095,-0.09995099902153015,0.03396200016140938],[0.01565999910235405,-0.07169599831104279,-0.0213019996881485,0.015162000432610512,-0.09366799890995026],[0.1713629961013794,0.08132799714803696,0.0007779999868944287,0.07764700055122375,-0.03392200171947479],[0.10830800235271454,0.09488199651241302,0.1535010039806366,0.07952000200748444,0.048381999135017395]]]],"conv2.bias":[0.0473099984228611,-0.04103200137615204,-0.08719000220298767,0.06964000314474106,-0.03192099928855896,-0.05017799884080887,-0.02061999961733818,-0.008817000314593315,0.052264999598264694,-0.06128599867224693,0.028609000146389008,-0.06672000139951706,0.07965199649333954,-0.03305000066757202,0.027248000726103783,0.0247189998626709],"fc.weight":[[0.0037430000957101583,0.06824800372123718,0.06592799723148346,-0.06437700241804123,0.07654999941587448,-0.01502699963748455,-0.06773000210523605,-0.11073199659585953,-0.10111799836158752,-0.0730540007352829,0.06627000123262405,-0.015344999730587006,0.0016509999986737967,-0.004641000181436539,0.06350400298833847,-0.002346999943256378,0.039115000516176224,-0.04024399816989899,-0.0270019993185997,0.019867999479174614,-0.009359000250697136,-0.14478999376296997,-0.09337600320577621,0.01066800020635128,-0.11665499955415726,0.026139000430703163,-0.044780999422073364,-0.02885499969124794,0.03300999850034714,0.08052700012922287,-0.061388999223709106,-0.044798001646995544,0.008727000094950199,-0.06477099657058716,0.10843899846076965,0.11505799740552902,-0.013678000308573246,0.005884999874979258,-0.03930500149726868,0.0682239979505539,-0.002730000065639615,-0.016183000057935715,0.009561000391840935,-0.016443999484181404,0.08501999825239182,0.10803200304508209,-0.022227000445127487,-0.15706700086593628,0.03823300078511238,-0.011819999665021896,-0.08009800314903259,-0.10141299664974213,-0.0678509995341301,-0.09313300251960754,-0.055135998874902725,-0.14849600195884705,-0.034033000469207764,-0.09175299853086472,0.029619000852108,0.012058000080287457,0.052191998809576035,0.09034500271081924,0.09928800165653229,0.1281059980392456,-0.020743999630212784,-0.02958899922668934,0.03554999828338623,0.06124100089073181,0.007362000178545713,0.04788900166749954,0.03355000168085098,0.009704000316560268,0.017342999577522278,-0.012408999726176262,-0.13829199969768524,-0.11598700284957886,0.03963400050997734,0.07074599713087082,-0.03524100035429001,-0.004953000228852034,0.044429998844861984,0.06031399965286255,0.013286000117659569,-0.018703000620007515,0.0017259999876841903,-0.122530996799469,0.02414100058376789,0.010259999893605709,-0.02917799912393093,-0.1010890007019043,0.058348000049591064,0.06499999761581421,-0.07116000354290009,-0.08545199781656265,-0.07468300312757492,0.01260400004684925,-0.006606000009924173,-0.021453000605106354,-0.04271800071001053,-0.08908700197935104,0.07468400150537491,0.09668400138616562,0.04313499853014946,0.03026299923658371,-0.07890000194311142,-0.03688599914312363,-0.014406000263988972,0.016489999368786812,-0.038297999650239944,-0.06634800136089325,-0.08005300164222717,-0.021763000637292862,-0.037105999886989594,-0.042688999325037,0.02016099914908409,0.08701399713754654,-0.19692499935626984,0.028822999447584152,0.06554099917411804,0.11544399708509445,-0.0612960010766983,-0.08404099941253662,-0.0030610000248998404,-0.048190999776124954,0.04368500038981438,-0.026652000844478607,-0.029680000618100166,-0.03156299889087677,-0.14607800543308258,0.013880000449717045,-0.07070299983024597,-0.06900600343942642,0.017878999933600426,0.05465799942612648,-0.08709699660539627,-0.0658629983663559,0.023514000698924065,0.05627100169658661,-0.09518799930810928,-0.055619001388549805,0.12093000113964081,0.0216669999063015,0.03358500078320503,0.05999299883842468,0.03088200092315674,-0.0018579999450594187,-0.03181099891662598,0.08121900260448456,-0.027679000049829483,0.041322000324726105,-0.03771600127220154,0.07011699676513672,0.036747001111507416,0.02214599959552288,-0.04329099878668785,0.029131000861525536,0.04812699928879738,0.014950999990105629,-0.07082299888134003,-0.14018100500106812,-0.09372500330209732,-0.041724998503923416,0.022610999643802643,0.033052001148462296,0.021573999896645546,0.0068419999442994595,0.09980800002813339,-0.037137001752853394,-0.030572999268770218,-0.10400500148534775,-0.06664600223302841,-0.04557399824261665,-0.02789900079369545,-0.01873200014233589,0.016202999278903008,0.04818800091743469,-0.040800001472234726,0.061546001583337784,-0.030845999717712402,0.0038419999182224274,0.11791300028562546,0.07194100320339203,-0.04642099887132645,0.020010000094771385,0.12490999698638916,0.027225999161601067,-0.05262399837374687,-0.02513200044631958,0.05934000015258789,-0.007903999648988247,-0.08670099824666977,-0.0039980001747608185,-0.11072999984025955,0.02199999988079071,0.017266999930143356,0.11139199882745743,-0.10898000001907349,0.038329001516103745,0.08076400309801102,-0.03429799899458885,-0.06041000038385391,0.09185799956321716,-0.038001999258995056,-0.079134002327919,-0.008801000192761421,0.12383999675512314,-0.035277001559734344,-0.09405600279569626,-0.022993000224232674,0.03419400006532669,0.041133999824523926,-0.047892000526189804,-0.01066800020635128,0.05260999873280525,0.07074400037527084,0.010633000172674656,0.0613120011985302,-0.0313510000705719,-0.056019000709056854,0.04004700109362602,-0.019339000806212425,0.04704299941658974,-0.049876999109983444,-0.0035000001080334187,0.037445999681949615,-0.033640000969171524,0.005022000055760145,0.05230500176548958,-0.018239999189972878,-0.012524999678134918,-0.16660800576210022,-0.0003589999978430569,0.01220100000500679,-0.018712999299168587,-0.10843999683856964,-0.0753529965877533,0.06610500067472458,0.07642699778079987,-0.0010079999919980764,-0.05370499938726425,-0.12329600006341934,-0.00254100002348423,0.05478399991989136,0.09417799860239029,-0.15868400037288666,0.03294700011610985,-0.13731999695301056,-0.07025200128555298,-0.21974200010299683,-0.08527299761772156,-0.0581899993121624,0.07821399718523026,0.0032099999953061342,0.02533699944615364,0.14053000509738922,0.09430599957704544],[0.0176170002669096,0.07025600224733353,-0.0799970030784607,0.01589200086891651,0.07400300353765488,0.03397199884057045,-0.08305700123310089,-0.14598900079727173,0.10449299961328506,0.12513400614261627,-0.08077500015497208,0.0071680000983178616,0.04835100099444389,0.0225249994546175,-0.07299400120973587,0.034363001585006714,-0.025614000856876373,-0.000699999975040555,0.017395000904798508,-0.01166400033980608,0.01540399994701147,-0.08877799659967422,-0.05004600062966347,-0.006779000163078308,0.03611300140619278,-0.14832299947738647,0.07632999867200851,0.02196200005710125,0.05581299960613251,-0.09189499914646149,0.0667480006814003,0.08090300112962723,0.09014099836349487,0.056717000901699066,0.08686599880456924,-0.008921000175178051,-0.16759300231933594,0.06752199679613113,0.06027499958872795,0.06155100092291832,-0.11316999793052673,-0.09238100051879883,0.024369999766349792,-0.02245200052857399,-0.002655999967828393,-0.05272899940609932,0.09187400341033936,0.0468829981982708,0.0226610004901886,0.13987599313259125,0.08277600258588791,-0.015196999534964561,0.07411699742078781,0.013182999566197395,-0.037748999893665314,0.04535600170493126,-0.024399999529123306,0.038277000188827515,0.09987100213766098,-0.029371000826358795,-0.00088900001719594,0.004978000186383724,0.018946999683976173,0.02096799947321415,-0.0652569979429245,-0.08967699855566025,-0.06806199997663498,-0.0497639998793602,-0.03811600059270859,-0.0914359986782074,-0.012985999695956707,-0.04207700118422508,-0.10283099859952927,-0.023259999230504036,-0.034696999937295914,-0.04906599968671799,0.008960000239312649,-0.035718999803066254,-0.010188999585807323,0.03802099823951721,-0.024816999211907387,0.08488699793815613,0.17401500046253204,0.026065999642014503,0.10536900162696838,0.09015700221061707,0.07283200323581696,0.027569999918341637,0.03146800026297569,0.04583499953150749,0.09908799827098846,-0.16703000664710999,0.03830699995160103,0.0002469999890308827,-0.06022199988365173,-0.1213809996843338,0.038001999258995056,0.12470699846744537,0.17388099431991577,0.07256200164556503,-0.018711000680923462,-0.031925998628139496,-0.05388899892568588,-0.023885000497102737,0.061445001512765884,0.08575800061225891,0.0833360031247139,-0.024156000465154648,-0.00939599983394146,0.1752610057592392,-0.050960998982191086,-0.1544180065393448,0.10102400183677673,0.09205099940299988,-0.082676000893116,-0.10417799651622772,0.003628999926149845,-0.1236720010638237,-0.054889000952243805,0.03609500080347061,-0.032141998410224915,0.021276000887155533,0.08831299841403961,0.054614998400211334,-0.06503999978303909,0.037369001656770706,0.12270600348711014,0.0456789992749691,0.03655900061130524,0.0462150014936924,0.12978200614452362,0.032412998378276825,-0.0879959985613823,-0.08340799808502197,0.10723599791526794,0.011055000126361847,-0.032719001173973083,0.05200200155377388,0.01887499913573265,-0.03117999993264675,0.06454899907112122,0.11868400126695633,0.04425999894738197,-0.1577879935503006,-0.06238900125026703,0.001841000048443675,-0.06153399869799614,-0.10182999819517136,-0.022766999900341034,-0.02309899963438511,-0.04868900030851364,-0.07215400040149689,-0.05973999947309494,0.02724199928343296,-0.05441899970173836,-0.05113900080323219,-0.10507600009441376,-0.04043399915099144,-0.015941999852657318,0.06500700116157532,-0.033312998712062836,-0.10622499883174896,-0.11571600288152695,-0.10174400359392166,0.0022040000185370445,-0.04727400094270706,-0.10372400283813477,-0.17292000353336334,-0.003938999958336353,-0.03163300082087517,-0.13419699668884277,-0.17224200069904327,-0.008755999617278576,-0.044098999351263046,-0.10781999677419662,-0.10731100291013718,0.03810599818825722,0.1290930062532425,0.11703100055456161,-0.015077999792993069,-0.000674000009894371,-0.08104100078344345,0.03526899963617325,0.026833999902009964,-0.12684600055217743,-0.04684999957680702,-0.027713000774383545,0.022424999624490738,0.01628199964761734,0.05263900011777878,0.09685000032186508,-0.029457999393343925,0.08407200127840042,-0.02116600051522255,-0.14918899536132812,0.059310998767614365,-0.12389200180768967,-0.038013000041246414,-0.011601000092923641,0.06611700356006622,0.0173530001193285,-0.03192700073122978,0.05672699958086014,-0.015845999121665955,0.015092999674379826,-0.0617309994995594,0.0795309990644455,-0.02884799987077713,0.04926399886608124,-0.039643000811338425,0.03104499913752079,0.04835899919271469,-0.01569399982690811,0.017643000930547714,0.07825999706983566,0.032457999885082245,-0.02964399941265583,-0.08015699684619904,-0.022909000515937805,-0.013050000183284283,-0.12764400243759155,0.03534499928355217,-0.014096000231802464,-0.008437000215053558,-0.05515800043940544,0.019014999270439148,0.0819849967956543,0.0038610000628978014,-0.1168690025806427,-0.09088300168514252,0.007029000204056501,0.05098799988627434,0.0192050002515316,-0.051107000559568405,0.12768100202083588,0.06897299736738205,0.07769700139760971,0.012268999591469765,0.07718600332736969,0.03428199887275696,-0.06412799656391144,-0.08411800116300583,0.0353350006043911,0.038107000291347504,-0.0027099999133497477,-0.07373099774122238,0.1095300018787384,0.0026700000744313,0.0009040000149980187,-0.03234799951314926,0.08298999816179276,0.044913001358509064,-0.08982100337743759,0.029471000656485558,-0.01716499961912632,0.02585200034081936],[-0.0401110015809536,-0.03959900140762329,-0.015877999365329742,-0.047919001430273056,0.021595999598503113,0.03001900017261505,-0.010745000094175339,-0.03982900083065033,0.0228240005671978,0.0541980005800724,0.07815100252628326,0.03918800130486488,0.0025760000571608543,-0.007306999992579222,0.04826999828219414,0.15291500091552734,0.06843599677085876,0.006430999841541052,-0.09424799680709839,-0.00939599983394146,0.04368500038981438,-0.00469700014218688,-0.03016199916601181,-0.02471099980175495,-0.05750900134444237,0.01159599982202053,-0.06830299645662308,0.013511000201106071,-0.04021000117063522,-0.032611001282930374,0.06750199943780899,0.09088300168514252,-0.14554299414157867,0.04301200062036514,0.08696199953556061,0.11125600337982178,-0.20738600194454193,-0.1485529989004135,-0.010544000193476677,-0.014383000321686268,-0.20261399447917938,-0.120387002825737,-0.11079099774360657,-0.06147700175642967,0.024973999708890915,0.061218999326229095,0.06594300270080566,0.07578200101852417,0.03941800072789192,0.047717999666929245,-0.000674000009894371,-0.1640399992465973,0.11576399952173233,0.039838001132011414,-0.06399600207805634,0.009345999918878078,0.11482600122690201,-0.06317099928855896,-0.09042199701070786,0.05884300172328949,0.07445099949836731,0.08183500170707703,0.019719000905752182,-0.013605000451207161,0.030027000233530998,0.022988999262452126,0.020114000886678696,-0.05584599822759628,0.05476199835538864,-0.042208001017570496,-0.11205600202083588,-0.1075960025191307,-0.01858000084757805,0.03704100102186203,-0.013717000372707844,0.015394000336527824,-0.01782899908721447,0.047547001391649246,0.012622999958693981,0.14772599935531616,0.12098599970340729,0.005528999958187342,-0.03746600076556206,0.05768899992108345,0.03804900124669075,0.056669000536203384,0.038144998252391815,0.022223999723792076,0.00822100043296814,-0.008705000393092632,0.061827000230550766,-0.01056700013577938,-0.04862299934029579,-0.048663001507520676,-0.12634199857711792,0.19611400365829468,-0.018861999735236168,0.12160799652338028,-0.04184199869632721,0.0204670000821352,0.013898000121116638,0.04715399816632271,0.03363500162959099,0.007538000121712685,-0.05442199856042862,-0.08541800081729889,-0.07779599726200104,-0.035440001636743546,0.1533060073852539,0.022482000291347504,-0.08041500300168991,-0.21852999925613403,0.028912000358104706,0.09250999987125397,-0.0015650000423192978,0.030650999397039413,0.04494300112128258,0.030083000659942627,-0.0773639976978302,-0.03209599852561951,-0.169297993183136,-0.08571299910545349,-0.038502998650074005,-0.036556001752614975,-0.03237999975681305,-0.020983999595046043,0.09266900271177292,0.06452500075101852,-0.14149999618530273,-0.05735199898481369,-0.0538799986243248,-0.0716169998049736,-0.13757100701332092,-0.08748800307512283,-0.02078700065612793,0.024057000875473022,-0.17844200134277344,-0.07655200362205505,0.08108799904584885,0.01717500016093254,0.10126399993896484,0.001967000076547265,-0.02488500066101551,-0.07538200169801712,-0.041450001299381256,0.026649000123143196,0.08178199827671051,-0.028071999549865723,0.02708899974822998,0.036035001277923584,0.02931400015950203,0.0017010000301524997,-0.027319999411702156,0.008511999621987343,-0.035399001091718674,-0.07485499978065491,-0.06009199842810631,-0.0783730000257492,0.02482300065457821,0.0025869999080896378,0.026020999997854233,-0.01561800017952919,0.06930200010538101,-0.010944000445306301,0.04734399914741516,0.07242099940776825,0.0053460001945495605,-0.049518000334501266,0.021581999957561493,-0.005597999785095453,0.006725000217556953,-0.05679500102996826,-0.03529199957847595,-0.03366599977016449,0.03296799957752228,0.11210999637842178,0.07479800283908844,0.03890899941325188,-0.021842999383807182,-0.033504001796245575,-0.05680200085043907,-0.035374000668525696,-0.06306900084018707,-0.04461799934506416,-0.15034499764442444,-0.037050001323223114,-0.06408099830150604,-0.08454500138759613,0.194909006357193,0.1403059959411621,-0.005694999825209379,0.06926500052213669,-0.06870300322771072,0.08829499781131744,0.008054999634623528,0.03453100100159645,-0.11508499830961227,-0.03713100031018257,-0.00974200014024973,0.02533400058746338,-0.07030600309371948,-0.008448000065982342,-0.037946999073028564,-0.060858000069856644,0.06891000270843506,0.004987000022083521,0.05973000079393387,-0.03511099889874458,0.06335300207138062,0.007116999942809343,-0.07060199975967407,0.02604600042104721,0.0548660010099411,-0.04221399873495102,-0.015213999897241592,0.027848999947309494,0.03183300048112869,-0.03646799921989441,0.0067159999161958694,-0.03563399985432625,0.016333000734448433,0.07601100206375122,0.07362499833106995,-0.06952700018882751,0.10115499794483185,0.016056999564170837,0.023773999884724617,0.01573600061237812,0.006268000230193138,0.04192899912595749,-0.0398159995675087,0.07801800221204758,-0.08276999741792679,0.027374999597668648,-0.06685499846935272,0.02532299980521202,0.010347000323235989,0.032221000641584396,-0.042753998190164566,0.09151799976825714,0.0026829999405890703,0.005311000160872936,0.05889299884438515,-0.012994999997317791,0.09424299746751785,0.09602600336074829,-0.025839999318122864,-0.07757599651813507,-0.17686699330806732,-0.11246500164270401,0.0864579975605011,0.054933998733758926,-0.04682200029492378,-0.09383200109004974,0.0771619975566864,0.2246219962835312],[-0.011509000323712826,-0.045841000974178314,-0.041517000645399094,0.059835001826286316,-0.10029400140047073,-0.10354699939489365,-0.031036999076604843,0.07329700142145157,-0.0036510000936686993,0.00392800010740757,0.00279000005684793,0.07677300274372101,-0.05001400038599968,0.08424200117588043,0.10356099903583527,0.05924199894070625,0.05139800161123276,0.02433899976313114,-0.02816000021994114,-0.01057399995625019,0.05507100000977516,0.11145000159740448,0.005034999921917915,0.01053600013256073,0.03727300092577934,0.025245999917387962,-0.020137999206781387,0.0347369983792305,0.07772000133991241,-0.016088999807834625,-0.042865999042987823,-0.088687002658844,-0.03373299911618233,-0.05217700079083443,-0.031122999265789986,0.04525899887084961,-0.22400100529193878,-0.21977899968624115,-0.0431939996778965,-0.004100999794900417,0.053282998502254486,-0.018218999728560448,0.07855000346899033,-0.0057669999077916145,-0.007187999784946442,-0.11794000118970871,-0.028176000341773033,-0.03164200112223625,0.02685300074517727,0.07366299629211426,-0.0902549996972084,-0.12096899747848511,0.08620300143957138,0.036674000322818756,0.09919700026512146,0.07365600019693375,0.0007259999983943999,0.0002969999914057553,0.0006680000224150717,-0.11202099919319153,0.0688600018620491,0.02327900007367134,0.01256099995225668,-0.014405000023543835,0.1395609974861145,-0.01508999988436699,-0.026899000629782677,-0.06864099949598312,0.0052200001664459705,0.04981900006532669,-0.015771999955177307,-0.03800100088119507,-0.05787299945950508,-0.0012489999644458294,0.01737299934029579,-0.012915000319480896,0.029881000518798828,-0.03313999995589256,-0.05449200049042702,-0.07958599925041199,-0.004244000185281038,-0.0028299998957663774,-0.028240999206900597,-0.23747600615024567,0.07621700316667557,0.011270999908447266,-0.09134700149297714,-0.28567999601364136,0.015873000025749207,0.04459400102496147,-0.048996999859809875,-0.018393000587821007,0.01878499984741211,0.036295998841524124,0.08561799675226212,0.009688000194728374,-0.13740800321102142,-0.024188000708818436,0.07944200187921524,-0.031021999195218086,0.03872400149703026,-0.06979600340127945,-0.17011499404907227,0.013512000441551208,0.02965099923312664,-0.11052999645471573,-0.023364000022411346,-0.039455998688936234,-0.15234200656414032,-0.10493399947881699,0.008640999905765057,0.0641620010137558,0.02074199914932251,0.10522399842739105,-0.021361999213695526,-0.11610300093889236,0.0018159999744966626,-0.025505999103188515,0.0698779970407486,-0.0028200000524520874,0.022312000393867493,0.08923900127410889,0.09104999899864197,0.0026730000972747803,-0.03893100097775459,0.06589800119400024,-0.040196001529693604,-0.06628700345754623,-0.21796800196170807,-0.11568299680948257,0.010387999936938286,0.05521000176668167,-0.01737399958074093,-0.007853000424802303,-0.03787099942564964,0.06847400218248367,0.03477799892425537,-0.09661100059747696,-0.05227399989962578,-0.05863799899816513,-0.18183599412441254,-0.19498099386692047,-0.06345599889755249,0.03652099892497063,0.002225999953225255,0.10293900221586227,0.09165400266647339,0.05987200140953064,-0.04270400106906891,0.01883699931204319,-0.03445199877023697,-0.022840000689029694,-0.004178999923169613,0.0027340000960975885,0.10850299894809723,0.014600000344216824,0.06669999659061432,0.03813000023365021,0.06603299826383591,0.04526999965310097,0.09187600016593933,0.04540799930691719,0.04604800045490265,0.024918999522924423,0.08562000095844269,0.10005100071430206,0.062199998646974564,0.044450998306274414,-0.09332700073719025,-0.02582399919629097,0.06546899676322937,0.03849999979138374,0.008369999937713146,-0.017694000154733658,0.02786399982869625,-0.05460600182414055,-0.08938100188970566,-0.10627800226211548,-0.024500999599695206,-0.03304599970579147,-0.25301501154899597,-0.09561800211668015,-0.019329000264406204,0.039197999984025955,-0.1579349935054779,-0.10092899948358536,0.07818199694156647,-0.030076999217271805,-0.1547819972038269,-0.1681309938430786,-0.07390200346708298,-0.03405199944972992,0.03908500075340271,-0.11949100345373154,-0.06882499903440475,0.019765999168157578,-0.14213399589061737,-0.08986099809408188,0.05892699956893921,-0.011838000267744064,-0.019440000876784325,0.03362099826335907,0.007468999829143286,0.0483580008149147,0.008414000272750854,0.03747599944472313,-0.054496001452207565,-0.0019209999591112137,0.06487300246953964,-0.049594998359680176,0.10533300042152405,0.05757300183176994,-0.08068300038576126,-0.06165200099349022,0.11268000304698944,0.014829999767243862,-0.03251099959015846,-0.043970998376607895,-0.0045779999345541,-0.023135000839829445,-0.05104000121355057,-0.004542000126093626,0.001408000010997057,-0.0028349999338388443,-0.07148700207471848,-0.06810099631547928,0.01905200071632862,0.04694100096821785,-0.18353299796581268,-0.18858499825000763,-0.11792200058698654,-0.03550099954009056,0.0786999985575676,-0.0349389985203743,-0.021987000480294228,0.0018309999722987413,-0.08290799707174301,0.023367999121546745,-0.02830200083553791,-0.023213999345898628,-0.07073400169610977,0.04191699996590614,-0.010333999991416931,0.02940399944782257,-0.018129000440239906,0.0011020000092685223,-0.016620000824332237,0.0011370000429451466,0.09627699851989746,0.0810059979557991,-0.183445006608963,-0.17483800649642944,0.20485499501228333,0.08100900053977966,-0.12444400042295456,0.01899000070989132],[-0.028396999463438988,-0.02518099918961525,0.08076000213623047,-0.10397999733686447,0.05577100068330765,0.012218999676406384,0.02551800012588501,-0.010288000106811523,-0.013867000117897987,-0.040557000786066055,-0.06694799661636353,-0.07018599659204483,-0.04235599935054779,-0.10990899801254272,-0.24965600669384003,-0.18188300728797913,-0.07856100052595139,-0.12546700239181519,-0.006785000208765268,-0.06061000004410744,0.0783739984035492,-0.020555000752210617,0.005849999841302633,0.0025480000767856836,0.0403750017285347,0.038221001625061035,0.06586500257253647,0.007953000254929066,0.09640800207853317,-0.05956500023603439,-0.04858599975705147,0.08801600337028503,0.04678700119256973,-6.600000051548705e-05,0.05589599907398224,0.03194500133395195,-0.008093000389635563,0.028674999251961708,0.025743000209331512,0.07445599883794785,0.10103499889373779,0.0506259985268116,-0.08109500259160995,0.06377000361680984,0.008330999873578548,0.0002969999914057553,0.01318500004708767,0.05622699856758118,-0.1461309939622879,-0.08416400104761124,-0.049139998853206635,-0.015034000389277935,-0.07506699860095978,0.05952500179409981,0.07615099847316742,0.08389200270175934,0.022471999749541283,-0.008225000463426113,0.027177000418305397,0.09967000037431717,-0.08502499759197235,-0.04961099848151207,-0.11231599748134613,-0.006891000084578991,-0.025467999279499054,-0.1290140002965927,-0.13287900388240814,-0.07665900141000748,0.05708000063896179,0.0083600003272295,-0.021407000720500946,0.020827999338507652,0.05933799967169762,0.008794999681413174,-0.010858999565243721,0.06438100337982178,0.0030519999563694,0.06604599952697754,0.07995200157165527,0.041446998715400696,0.058851998299360275,-0.10159000009298325,0.0018279999494552612,-0.12642499804496765,-0.025131000205874443,-0.11501199752092361,0.021174000576138496,-0.18867099285125732,0.0052280002273619175,0.0729060024023056,0.0014140000566840172,-0.05042999982833862,0.12162800133228302,0.03243499994277954,-0.004739999771118164,-0.07972600311040878,0.08223800361156464,0.06141899898648262,0.20861899852752686,0.013457000255584717,-0.01286299992352724,-0.11637700349092484,-0.13714900612831116,-0.012718000449240208,0.009983000345528126,-0.019027000293135643,0.05304799973964691,-0.04614400118589401,0.03043000027537346,0.0492670014500618,0.08889999985694885,0.03281199932098389,-0.0300890002399683,-0.08506499975919724,-0.01767599955201149,-0.09290599822998047,-0.06906600296497345,0.0035039999056607485,0.0031969998963177204,-0.05183300003409386,0.09048599749803543,0.03415900096297264,0.019026000052690506,-0.03860599920153618,-0.023665999993681908,-0.05869299918413162,0.007156000006943941,-0.0008670000243000686,0.135125994682312,0.1031540036201477,0.05104599893093109,0.03013399988412857,-0.023607999086380005,0.12751199305057526,0.039253998547792435,0.06383199989795685,0.0823810026049614,0.039055000990629196,-0.04137999936938286,0.014236999675631523,0.0871800035238266,0.08711600303649902,0.03634500131011009,-0.039955999702215195,0.07194499671459198,-0.04019999876618385,-0.08103200048208237,-0.0908840000629425,0.024320000782608986,-0.031240999698638916,0.029558999463915825,-0.12035000324249268,0.014353999868035316,0.06718699634075165,-0.02707199938595295,-0.07328599691390991,-0.038750000298023224,-0.04849499836564064,0.05011900141835213,0.023847000673413277,-0.031282998621463776,-0.14610600471496582,-0.25856199860572815,-0.1270270049571991,-0.07254800200462341,-0.17470300197601318,-0.07585400342941284,-0.16677699983119965,0.10455700010061264,0.022638000547885895,0.05861499905586243,-0.046549998223781586,0.06930399686098099,0.021359000355005264,0.08168900012969971,0.009711000137031078,0.044860001653432846,-0.16508500277996063,-0.08538100123405457,-0.000783999974373728,-0.030926000326871872,-0.08488299697637558,-0.1236409991979599,0.07524900138378143,0.08732300251722336,0.013353999704122543,-0.042305998504161835,0.07030899822711945,-0.018950000405311584,-0.11813099682331085,0.05084199830889702,0.09778200089931488,0.13656599819660187,0.09054599702358246,-0.08295399695634842,-0.091389000415802,0.00837900023907423,0.03596299886703491,-0.03432200103998184,0.025193000212311745,-0.01918400079011917,-0.0055320002138614655,-0.07522299885749817,0.04812899976968765,0.029853999614715576,-0.07733999937772751,0.07394099980592728,-0.013716000132262707,-0.020742999389767647,-0.022593999281525612,-0.09395799785852432,-0.0025110000278800726,0.07114499807357788,0.05548999831080437,0.020802000537514687,0.0025430000387132168,0.07203099876642227,0.037772998213768005,-0.01317100040614605,-0.03422499820590019,0.0004290000069886446,0.0478379987180233,0.04305800050497055,-0.03391199931502342,0.055904000997543335,0.08491399884223938,-0.07655999809503555,0.016147999092936516,0.08092600107192993,0.05171399936079979,0.03145400062203407,0.14907699823379517,0.04569400101900101,0.03699899837374687,0.020735999569296837,0.037741001695394516,-0.07009699940681458,-0.03199699893593788,-0.005166999995708466,-0.017973000183701515,-0.22692100703716278,-0.107014000415802,-0.2434930056333542,-0.3674449920654297,0.019679000601172447,0.07122000306844711,-0.05588100105524063,0.040355000644922256,0.04828700050711632,-0.016232000663876534,0.0658940002322197,0.004523999989032745,-0.10374400019645691,-0.04801400005817413,-0.35651999711990356,-0.1142750009894371],[0.02739899978041649,-0.07094399631023407,-0.04628299921751022,-0.06555599719285965,-0.03788499906659126,-0.04938400164246559,-0.03779799863696098,-0.0949070006608963,0.014038000255823135,0.04535200074315071,-0.030182000249624252,0.011877999641001225,-0.01053099986165762,0.028199000284075737,0.12869399785995483,0.10675100237131119,-0.04528699815273285,-0.05362299829721451,0.01523400004953146,0.10798799991607666,0.07302799820899963,0.06759700179100037,-0.004707000218331814,0.017464999109506607,0.02017199993133545,0.036913998425006866,-0.0006189999985508621,-0.06238200142979622,0.11852800101041794,0.03448500111699104,-0.09283600002527237,-0.12256699800491333,